-1.867536753416061401e-01,-1.801984757184982300e-01,-2.323491424322128296e-01,1.039235740900039673e-01,-6.912114098668098450e-03,-2.469203248620033264e-02,1.250165253877639771e-01,1.413676887750625610e-01,2.080196589231491089e-01
-3.594388812780380249e-02,-3.086554408073425293e-01,-4.270011559128761292e-02,1.219249665737152100e-01,-1.091660857200622559e-01,-1.116937920451164246e-01,2.025056332349777222e-01,1.138899698853492737e-01,1.243417635560035706e-01
6.974536925554275513e-02,-5.020469427108764648e-02,1.495584249496459961e-01,-3.907177224755287170e-02,-3.951587527990341187e-02,1.250621974468231201e-01,3.479164093732833862e-02,-2.260711789131164551e-02,-2.947460412979125977e-01
2.726714611053466797e-01,-2.537581697106361389e-02,-4.077120423316955566e-01,1.649982780218124390e-01,-5.806211829185485840e-01,-1.404483467340469360e-01,-2.770425379276275635e-01,-3.805318176746368408e-01,3.149293661117553711e-01
7.563342899084091187e-02,-2.948973774909973145e-01,-1.358990222215652466e-01,-6.598482839763164520e-03,-1.003038138151168823e-01,-2.843914180994033813e-02,2.039335519075393677e-01,1.850149035453796387e-01,1.023741289973258972e-01
9.174282662570476532e-03,1.499119699001312256e-01,2.157359570264816284e-01,-3.340224176645278931e-02,1.635367423295974731e-02,4.932258278131484985e-02,4.944171756505966187e-02,-3.185235559940338135e-01,-2.415798157453536987e-01
1.617839932441711426e-01,-1.973267793655395508e-01,-3.268423974514007568e-01,1.536480188369750977e-01,1.278758645057678223e-01,7.953565567731857300e-02,-5.071429908275604248e-02,-3.932547755539417267e-03,1.901323944330215454e-01
1.468642652034759521e-01,1.422827541828155518e-01,1.126703154295682907e-02,-5.420760437846183777e-02,1.638149470090866089e-01,1.041293442249298096e-01,-3.298519551753997803e-01,-2.419302612543106079e-01,7.035673409700393677e-02
-2.859352827072143555e-01,8.587384968996047974e-02,9.168297797441482544e-02,4.749609529972076416e-02,9.628321230411529541e-02,1.311597600579261780e-02,9.866578876972198486e-02,-3.717268351465463638e-03,-2.049412578344345093e-01
1.020712312310934067e-02,1.600718200206756592e-01,8.197855949401855469e-02,-8.838729560375213623e-02,-4.134531132876873016e-03,-5.830368772149085999e-02,-4.041974432766437531e-03,5.722659453749656677e-02,1.109200865030288696e-01
2.414097078144550323e-02,-6.789789348840713501e-02,-8.357129991054534912e-02,4.131034761667251587e-02,-1.103917509317398071e-01,5.493346601724624634e-02,1.421873122453689575e-01,8.367922902107238770e-02,3.801972046494483948e-02
2.045748233795166016e-01,1.607016772031784058e-01,1.907973438501358032e-01,1.248261611908674240e-02,5.721606314182281494e-02,4.837983474135398865e-02,-3.686876893043518066e-01,-3.280659615993499756e-01,-9.266494773328304291e-03
5.024237185716629028e-02,6.854064017534255981e-02,2.001038044691085815e-01,-2.728368341922760010e-01,-2.045582979917526245e-01,-3.498134911060333252e-01,2.260856777429580688e-01,7.998415082693099976e-02,4.011740162968635559e-02
4.900899156928062439e-02,2.360146306455135345e-02,-9.009040147066116333e-02,-1.290662735700607300e-01,-3.232897818088531494e-01,-9.830656647682189941e-02,2.173070013523101807e-01,2.007341384887695312e-01,1.404666155576705933e-01
-2.925870716571807861e-01,-1.711625456809997559e-01,-9.638313949108123779e-02,1.791182011365890503e-01,8.510472625494003296e-02,9.453173726797103882e-02,7.840482890605926514e-02,5.716943368315696716e-02,4.611253365874290466e-02
-2.799201607704162598e-01,-6.813719868659973145e-02,6.456626951694488525e-02,4.169203341007232666e-02,2.067946791648864746e-01,9.676650166511535645e-02,7.619453966617584229e-02,-7.214357703924179077e-02,-1.723735034465789795e-01
2.786254510283470154e-02,6.559360027313232422e-02,2.291990071535110474e-02,-9.581046551465988159e-02,-4.199254885315895081e-02,9.540861845016479492e-02,-1.028357073664665222e-01,1.013450250029563904e-01,9.099964797496795654e-02
-3.007317185401916504e-01,1.845957040786743164e-01,1.131713688373565674e-01,1.051729395985603333e-01,3.173035085201263428e-01,-9.683100879192352295e-02,1.417247205972671509e-01,-4.924259707331657410e-02,-4.080972969532012939e-01
6.921979039907455444e-02,7.020336389541625977e-02,1.336451321840286255e-01,-8.487732708454132080e-02,1.490708440542221069e-01,-1.573582440614700317e-01,-2.778312563896179199e-02,1.239209845662117004e-01,-1.487819850444793701e-01
1.733492463827133179e-01,-2.378922998905181885e-01,-3.085599243640899658e-01,1.721472442150115967e-01,-1.015471741557121277e-01,4.216999933123588562e-02,9.721161425113677979e-02,1.501413732767105103e-01,-2.461289800703525543e-02
4.876444488763809204e-02,-2.356065362691879272e-01,-6.710410863161087036e-02,1.353984326124191284e-01,9.319335222244262695e-02,5.459752678871154785e-02,-1.647333800792694092e-02,-4.520734399557113647e-02,-9.280926734209060669e-02
2.192737758159637451e-01,-1.018310859799385071e-01,-1.131821796298027039e-01,1.180118545889854431e-01,-1.505260318517684937e-01,-3.236683905124664307e-01,1.081887483596801758e-01,2.033549845218658447e-01,1.039390191435813904e-01
-1.939434558153152466e-01,7.186772674322128296e-02,1.077860593795776367e-01,-7.606871426105499268e-02,1.024426072835922241e-01,4.117423295974731445e-02,-8.464306592941284180e-03,-1.762171089649200439e-02,1.267577707767486572e-01
1.782602667808532715e-01,1.797321140766143799e-01,2.095259577035903931e-01,-4.087794944643974304e-02,2.506645768880844116e-02,8.600953966379165649e-02,-3.557351231575012207e-01,-2.685243487358093262e-01,-1.225215643644332886e-01
8.522277325391769409e-02,-9.722137451171875000e-02,-1.277012228965759277e-01,6.908307224512100220e-02,-5.600529164075851440e-02,2.136331982910633087e-02,1.511601507663726807e-01,7.694397121667861938e-02,1.109063178300857544e-01
-1.189765781164169312e-01,2.031096667051315308e-01,2.530080080032348633e-01,-4.823229908943176270e-01,1.705808937549591064e-01,1.407607495784759521e-01,-7.010042667388916016e-01,-7.214819788932800293e-01,-6.088514328002929688e-01
1.181590184569358826e-01,-1.943464130163192749e-01,-3.442395627498626709e-01,2.747765481472015381e-01,9.749835729598999023e-02,-1.928541362285614014e-01,2.664168737828731537e-02,2.169129848480224609e-01,5.271211266517639160e-02
2.074249833822250366e-01,3.254795670509338379e-01,7.984629832208156586e-03,2.745482921600341797e-01,1.329454481601715088e-01,-3.841865062713623047e-01,-3.970055878162384033e-01,-5.883894562721252441e-01,-2.188810557126998901e-01
-6.123188883066177368e-03,6.264315545558929443e-02,3.329868242144584656e-02,5.874033644795417786e-02,2.504896605387330055e-03,1.002335082739591599e-02,8.977988362312316895e-02,1.366301327943801880e-01,9.457535296678543091e-02
-2.840263843536376953e-01,9.166684001684188843e-02,6.012074276804924011e-02,-1.193173751235008240e-01,1.829739212989807129e-01,-1.777185499668121338e-02,1.054042130708694458e-01,4.399135336279869080e-02,-2.193684279918670654e-01
-1.342235058546066284e-01,5.107931327074766159e-03,1.359349042177200317e-01,1.140338554978370667e-01,1.582368612289428711e-01,1.693244725465774536e-01,1.779564470052719116e-02,-2.928923964500427246e-01,-2.804523706436157227e-01
-1.578613668680191040e-01,-1.288887262344360352e-01,5.101794749498367310e-02,2.263018190860748291e-01,1.803112179040908813e-01,-3.111690282821655273e-03,-1.353536844253540039e-01,-7.513273507356643677e-02,-2.069047391414642334e-01
-2.219356894493103027e-01,-4.561821988318115473e-04,-6.303243339061737061e-02,-4.542782902717590332e-03,1.554811149835586548e-01,-1.454891264438629150e-01,1.185288745909929276e-02,9.941028803586959839e-02,-1.154969632625579834e-01
1.364259719848632812e-01,4.818192869424819946e-02,-9.257323294878005981e-02,-2.865935489535331726e-02,7.832053303718566895e-02,-7.936301082372665405e-02,5.241296812891960144e-02,1.773384064435958862e-01,5.678138509392738342e-02
7.760474830865859985e-02,-1.043800115585327148e-01,-2.960508763790130615e-01,2.110648602247238159e-01,7.368288189172744751e-02,-3.780214190483093262e-01,4.871361702680587769e-02,3.152867555618286133e-01,1.136655434966087341e-01
-9.556111693382263184e-02,-1.647912114858627319e-01,-8.298831433057785034e-02,-1.985609829425811768e-01,-9.427079558372497559e-02,3.543623164296150208e-02,1.931944042444229126e-01,2.588517069816589355e-01,5.276207625865936279e-02
-4.951809346675872803e-01,-1.226250752806663513e-01,2.644481062889099121e-01,-3.954540789127349854e-01,-8.842776715755462646e-02,2.152869701385498047e-01,-3.112562000751495361e-01,-1.163843274116516113e-01,1.912414729595184326e-01
2.801235578954219818e-02,1.882641762495040894e-01,3.547443449497222900e-01,-2.566971182823181152e-01,-1.409629434347152710e-01,2.206509560346603394e-01,-3.686930835247039795e-01,-2.330036014318466187e-01,4.403060302138328552e-02
3.243623301386833191e-02,1.544148195534944534e-02,9.679754823446273804e-02,-4.574522748589515686e-02,7.878927141427993774e-02,-8.232269436120986938e-02,1.137080714106559753e-01,-4.907115921378135681e-02,5.402268841862678528e-02
1.471251249313354492e-02,1.104311645030975342e-01,5.455159768462181091e-02,-4.869502782821655273e-02,-1.505712419748306274e-02,-3.862550482153892517e-02,-1.044512838125228882e-01,6.952744722366333008e-02,6.594733148813247681e-02
-5.670749545097351074e-01,-5.788466930389404297e-01,-2.893226742744445801e-01,-1.219059154391288757e-02,1.676169037818908691e-01,-1.416699439287185669e-01,1.532698124647140503e-01,1.377352327108383179e-01,2.612732052803039551e-01
-3.707910180091857910e-01,-1.058038696646690369e-01,1.298476308584213257e-01,-1.836645156145095825e-01,2.049549967050552368e-01,1.759897321462631226e-01,1.289629340171813965e-01,1.599473953247070312e-01,-1.393795944750308990e-03
1.131484434008598328e-01,-1.528852730989456177e-01,2.322591654956340790e-02,-1.425449457019567490e-02,-1.203325483947992325e-02,1.712503731250762939e-01,2.199629545211791992e-01,-1.170139983296394348e-01,-9.617414325475692749e-02
2.087931521236896515e-02,-8.079280704259872437e-02,-2.150890082120895386e-01,2.037267200648784637e-02,2.183981239795684814e-01,1.851727664470672607e-01,-1.107132732868194580e-01,-1.969321817159652710e-01,-1.192463748157024384e-02
-2.304691672325134277e-01,5.796493589878082275e-02,1.550859361886978149e-01,1.987976431846618652e-01,-1.792815141379833221e-02,-1.547223925590515137e-01,1.026701852679252625e-01,-2.804307043552398682e-01,-2.636161819100379944e-02
-2.194317430257797241e-01,-5.371221527457237244e-02,-1.162823364138603210e-01,-7.551595568656921387e-02,-3.090169653296470642e-02,1.354351192712783813e-01,2.200416177511215210e-01,9.397862106561660767e-02,7.411270053125917912e-04
2.597681805491447449e-02,1.724092662334442139e-01,-1.929872781038284302e-01,-7.430855929851531982e-02,-2.041642926633358002e-02,-1.880352050065994263e-01,-4.424135014414787292e-02,1.678800582885742188e-01,1.520026475191116333e-01
-2.965287268161773682e-01,-2.855325937271118164e-01,8.378723263740539551e-02,-2.767795026302337646e-01,3.908957913517951965e-02,1.932109445333480835e-01,-2.966579794883728027e-02,2.371107600629329681e-02,2.891086339950561523e-01
6.854184716939926147e-02,1.548753529787063599e-01,8.949343860149383545e-02,-5.591295659542083740e-02,1.305146887898445129e-02,4.509785771369934082e-02,-1.003895178437232971e-01,-3.888323158025741577e-02,1.241746321320533752e-01
2.331386953592300415e-01,1.166689097881317139e-01,-2.694156467914581299e-01,1.829101443290710449e-01,2.756061218678951263e-02,-1.657674014568328857e-01,2.643631100654602051e-01,-7.041423022747039795e-02,-5.302999019622802734e-01
-2.617331147193908691e-01,-9.871083498001098633e-02,1.893225908279418945e-01,-2.359578013420104980e-01,-2.931170724332332611e-02,2.084912061691284180e-01,2.031995356082916260e-02,8.560856431722640991e-02,1.359214335680007935e-01
1.290862262248992920e-01,-3.527621924877166748e-02,-8.893125690519809723e-03,-2.167791575193405151e-01,-1.584423035383224487e-01,5.696740001440048218e-02,1.042889151722192764e-02,1.481641530990600586e-01,1.059359163045883179e-01
-1.661338061094284058e-01,-1.847595125436782837e-01,7.787860184907913208e-02,-4.377010837197303772e-02,-1.880816929042339325e-02,1.355638951063156128e-01,4.616467282176017761e-02,1.230357587337493896e-01,7.534347474575042725e-02
-1.469515264034271240e-01,-3.099806606769561768e-01,-1.812139600515365601e-01,6.380248069763183594e-02,9.841325879096984863e-02,8.840958587825298309e-03,6.842280179262161255e-02,2.142578810453414917e-01,9.904300421476364136e-02
-3.195130452513694763e-02,9.429524093866348267e-02,-7.996048033237457275e-02,6.503717601299285889e-02,-1.073263213038444519e-01,4.675756022334098816e-02,8.922893553972244263e-02,1.099665164947509766e-01,4.210731387138366699e-02
1.582628190517425537e-01,-6.936277449131011963e-02,-3.930959999561309814e-01,1.160916239023208618e-01,1.650410443544387817e-01,-1.165125891566276550e-01,-7.885885238647460938e-02,1.174771785736083984e-01,1.585322916507720947e-01
-9.767232835292816162e-02,-1.246866807341575623e-01,5.733586475253105164e-02,7.224094122648239136e-02,-1.217559538781642914e-02,1.112997531890869141e-01,-7.597667723894119263e-02,-7.263121753931045532e-02,-4.732063785195350647e-02
1.153605803847312927e-01,6.045316159725189209e-02,5.235129967331886292e-02,3.439544141292572021e-02,-5.497081205248832703e-02,-2.297230251133441925e-02,5.503224208950996399e-02,9.059411287307739258e-02,-9.402166306972503662e-02
-9.312248975038528442e-02,-1.338383406400680542e-01,7.364496588706970215e-02,-1.569403111934661865e-01,3.938087448477745056e-02,1.271479874849319458e-01,7.200706750154495239e-03,1.689290702342987061e-01,1.214271225035190582e-02
8.418396115303039551e-02,1.313162893056869507e-01,4.669535439461469650e-03,-4.329460114240646362e-02,6.537984311580657959e-02,-1.481899712234735489e-02,2.391157113015651703e-02,1.036438569426536560e-01,5.578407645225524902e-02
-1.817795038223266602e-01,-9.101126343011856079e-02,1.339534223079681396e-01,1.559950858354568481e-01,1.840049326419830322e-01,1.077040657401084900e-01,1.369179487228393555e-01,-1.587724685668945312e-01,-1.857585161924362183e-01
1.895792633295059204e-01,-7.981784641742706299e-02,-2.233953326940536499e-01,-3.137388080358505249e-02,2.886929921805858612e-02,-9.372629970312118530e-02,1.613750681281089783e-02,1.360285431146621704e-01,9.612366557121276855e-02
-3.699592873454093933e-02,2.063252031803131104e-02,2.775155305862426758e-01,4.666383191943168640e-02,-5.576988309621810913e-02,1.819609701633453369e-01,-3.600222468376159668e-01,-1.814106106758117676e-01,4.176380485296249390e-02
-2.209806740283966064e-01,-1.337001919746398926e-01,7.439500093460083008e-02,-2.543514966964721680e-02,4.038312286138534546e-02,1.510012298822402954e-01,-2.109413221478462219e-02,8.532173931598663330e-02,1.214415356516838074e-01
-3.145277872681617737e-02,9.919709712266921997e-02,7.191594690084457397e-02,4.405133798718452454e-02,2.054884731769561768e-01,-5.637911334633827209e-02,1.605598032474517822e-01,1.533389184623956680e-02,-1.711640059947967529e-01
-6.811649352312088013e-02,-2.926287241280078888e-02,5.144048482179641724e-02,6.905072182416915894e-02,6.298558413982391357e-02,5.862500891089439392e-02,1.377943605184555054e-01,-3.096194379031658173e-02,9.683948755264282227e-02
-1.903767697513103485e-02,4.545895010232925415e-02,-2.417585998773574829e-02,4.121489450335502625e-02,-5.477209109812974930e-03,1.038837656378746033e-01,7.778457552194595337e-02,-4.557315632700920105e-02,1.069639250636100769e-01
2.216023951768875122e-01,-8.603327721357345581e-02,-9.938681125640869141e-02,9.804597496986389160e-02,-8.797119557857513428e-02,-1.451166123151779175e-01,1.022178027778863907e-02,-2.317395955324172974e-01,-2.452537864446640015e-01
-5.101694166660308838e-02,-1.527778059244155884e-01,-4.749762639403343201e-02,6.926032900810241699e-02,9.056881070137023926e-03,1.449858695268630981e-01,1.021273806691169739e-01,-5.753673985600471497e-02,-2.272910624742507935e-01
-3.835492432117462158e-01,-2.851702570915222168e-01,-2.384835034608840942e-01,2.556948363780975342e-01,-8.090616203844547272e-03,-2.212484329938888550e-01,1.701086908578872681e-01,1.981558203697204590e-01,1.594242453575134277e-02
5.295644048601388931e-03,3.738664090633392334e-02,-2.061579748988151550e-02,-2.931984513998031616e-02,7.212392985820770264e-02,-2.839072793722152710e-02,1.116079986095428467e-01,-1.261250227689743042e-01,1.189673393964767456e-01
-2.690357565879821777e-01,-1.751715987920761108e-01,-9.489633142948150635e-02,-2.253669649362564087e-01,-1.334494203329086304e-01,-1.532513946294784546e-01,1.599559783935546875e-01,5.500959604978561401e-02,1.521864682435989380e-01
-1.281101852655410767e-01,-6.735450774431228638e-02,-4.232148057781159878e-05,-1.322573423385620117e-01,8.757908642292022705e-02,1.870410591363906860e-01,2.513331361114978790e-02,2.013575844466686249e-02,-2.338325828313827515e-01
6.006310880184173584e-02,-2.835884131491184235e-02,3.545128554105758667e-02,2.403159253299236298e-02,-1.329744979739189148e-02,-8.059155079536139965e-04,7.148340344429016113e-02,4.534345865249633789e-02,8.257462084293365479e-02
2.116240561008453369e-01,2.885856926441192627e-01,1.359116379171609879e-02,1.488026529550552368e-01,1.720033213496208191e-02,-2.076591104269027710e-01,3.534379601478576660e-02,-8.425370603799819946e-02,-2.885972857475280762e-01
3.916800394654273987e-02,-2.992866039276123047e-01,-2.285705804824829102e-01,-3.832220286130905151e-02,-5.014996975660324097e-02,1.516235023736953735e-01,1.002185866236686707e-01,2.832243442535400391e-01,1.032162532210350037e-01
7.386292517185211182e-02,-2.809430956840515137e-01,-1.270150095224380493e-01,-7.137230783700942993e-02,-1.211441159248352051e-01,-2.690418064594268799e-02,1.863380670547485352e-01,3.043748736381530762e-01,1.129484996199607849e-01
2.213007211685180664e-01,1.573229879140853882e-01,-1.342090368270874023e-01,1.191149502992630005e-01,4.393805563449859619e-02,-2.281656712293624878e-01,1.382050812244415283e-01,-3.028998151421546936e-02,-3.813517689704895020e-01
2.649556845426559448e-03,3.674608469009399414e-02,1.285157799720764160e-01,6.893062591552734375e-02,-3.791036084294319153e-02,-1.326668858528137207e-01,-1.091867238283157349e-01,-1.164985224604606628e-01,1.794039905071258545e-01
3.075299859046936035e-01,1.066854037344455719e-02,-3.887910246849060059e-01,2.009593099355697632e-01,-1.455895453691482544e-01,-2.500379383563995361e-01,1.766901761293411255e-01,-1.746992170810699463e-01,-5.310739278793334961e-01
2.998521625995635986e-01,1.772922873497009277e-01,2.248496562242507935e-01,-1.252832710742950439e-01,1.360201686620712280e-01,2.271672338247299194e-02,-3.292450904846191406e-01,-4.296692609786987305e-01,-4.588638246059417725e-01
7.733029127120971680e-02,1.304718106985092163e-01,-3.669733554124832153e-02,1.361086312681436539e-02,8.949157595634460449e-02,1.144382450729608536e-02,3.593297302722930908e-02,5.995490029454231262e-02,2.226102054119110107e-01
-2.000641375780105591e-01,-4.394523054361343384e-02,6.859038025140762329e-02,-6.217931210994720459e-02,1.109797209501266479e-01,1.989504843950271606e-01,2.138165831565856934e-01,1.008880361914634705e-01,-2.902013957500457764e-01
-4.877705574035644531e-01,-4.141765534877777100e-01,-2.105179578065872192e-01,1.207103766500949860e-02,2.290002442896366119e-02,-1.967615336179733276e-01,1.262011080980300903e-01,6.526276469230651855e-02,2.403937578201293945e-01
-1.306461691856384277e-01,1.406485736370086670e-01,-2.839116752147674561e-02,-1.216886267066001892e-01,5.848797410726547241e-02,5.554962158203125000e-02,1.267116963863372803e-01,2.523236535489559174e-02,1.382540762424468994e-01
-2.891968004405498505e-02,-3.167651295661926270e-01,-2.079212069511413574e-01,2.063130736351013184e-01,1.714339405298233032e-01,6.441958993673324585e-02,3.744744136929512024e-02,6.660228222608566284e-02,1.229732260107994080e-01
5.044509842991828918e-02,-1.893716007471084595e-01,-2.454668283462524414e-01,2.012509554624557495e-01,1.645155400037765503e-01,-1.811398938298225403e-02,-1.034474596381187439e-01,1.836050152778625488e-01,4.436681047081947327e-02
-4.036855697631835938e-02,-2.474919110536575317e-01,-6.205315589904785156e-01,3.103293180465698242e-01,3.393310308456420898e-01,-4.776228666305541992e-01,1.673892438411712646e-01,2.442428767681121826e-01,-7.089478522539138794e-02
7.232321053743362427e-02,1.293746083974838257e-01,-8.956176042556762695e-02,-1.459854990243911743e-01,1.521414816379547119e-01,1.843235492706298828e-01,-5.155413225293159485e-02,-2.320205094292759895e-03,-9.611266665160655975e-03
-8.945937454700469971e-02,2.956239879131317139e-01,3.262200057506561279e-01,-3.598163425922393799e-01,-1.400328893214464188e-02,3.578616678714752197e-01,-5.028496384620666504e-01,-3.896433711051940918e-01,1.099709793925285339e-01
1.889800727367401123e-01,3.191975504159927368e-02,3.346372395753860474e-02,2.170841097831726074e-01,-1.949093937873840332e-01,-2.602670490741729736e-01,-8.456358313560485840e-02,-1.038013175129890442e-01,1.474556326866149902e-01
-5.001209974288940430e-01,-2.964577972888946533e-01,2.049362361431121826e-01,4.862483590841293335e-02,-3.286713659763336182e-01,-4.467273652553558350e-01,2.938988506793975830e-01,1.927952766418457031e-01,5.138198379427194595e-03
1.612566411495208740e-01,-3.043088316917419434e-02,-4.735581576824188232e-01,2.342285811901092529e-01,2.294978201389312744e-01,-3.428277671337127686e-01,-4.587334394454956055e-02,2.254664599895477295e-01,2.268946543335914612e-02
-5.005388334393501282e-02,-4.590005055069923401e-02,9.080249071121215820e-02,1.156756430864334106e-01,4.044068604707717896e-02,-2.620082534849643707e-02,5.838367715477943420e-02,5.417572101578116417e-04,1.198562309145927429e-01
-3.879032656550407410e-02,2.738769650459289551e-01,-6.156482547521591187e-02,1.053465902805328369e-01,1.473882496356964111e-01,-1.482680588960647583e-01,7.586669921875000000e-02,7.162599358707666397e-03,-1.549427211284637451e-01
-2.308843582868576050e-01,-1.435347944498062134e-01,9.782926738262176514e-02,1.819469332695007324e-01,1.857661753892898560e-01,1.381059736013412476e-01,-3.259891271591186523e-02,-2.140171825885772705e-01,-2.278107255697250366e-01
9.693217463791370392e-03,3.177090082317590714e-03,-8.699727058410644531e-02,1.717187277972698212e-02,7.575859129428863525e-02,1.571955680847167969e-01,-1.236898526549339294e-01,-1.168165281414985657e-01,2.195042185485363007e-02
2.089773491024971008e-02,-1.560862064361572266e-01,2.053633928298950195e-01,1.118000149726867676e-01,1.851841956377029419e-01,1.111488416790962219e-01,-1.236204877495765686e-01,-9.902914613485336304e-02,-3.492263853549957275e-01
-3.783902525901794434e-01,-7.131256163120269775e-02,7.473675161600112915e-02,-2.840490937232971191e-01,2.796604298055171967e-02,2.206473946571350098e-01,-4.830498993396759033e-02,2.045930624008178711e-01,1.880385577678680420e-01
-8.105752617120742798e-02,-1.107623334974050522e-02,-5.690883100032806396e-02,2.236172929406166077e-02,-7.793854176998138428e-02,-8.060055226087570190e-02,-4.031681269407272339e-02,-1.636186987161636353e-02,-4.161785542964935303e-02
1.612057536840438843e-01,7.134968042373657227e-02,-1.628223210573196411e-01,-1.733319312334060669e-01,-1.766082793474197388e-01,7.375742495059967041e-02,2.208125032484531403e-02,-1.777727715671062469e-02,1.939989328384399414e-01
-1.060550510883331299e-01,1.633187830448150635e-01,1.227690726518630981e-01,-1.335282027721405029e-01,1.071933582425117493e-01,5.917289108037948608e-02,6.650182418525218964e-03,1.676880121231079102e-01,2.287498712539672852e-01
2.364565581083297729e-01,2.132823169231414795e-01,2.989622652530670166e-01,-2.182425744831562042e-02,1.735324598848819733e-02,9.270297363400459290e-03,-3.069712817668914795e-01,-2.898609638214111328e-01,-2.027548253536224365e-01
1.439961344003677368e-01,3.122383914887905121e-02,-2.733137607574462891e-01,7.547829300165176392e-02,1.145526021718978882e-02,-3.969354033470153809e-01,6.239844113588333130e-02,2.619937658309936523e-01,1.127745956182479858e-01
4.489871114492416382e-02,-5.893432535231113434e-03,3.037741221487522125e-02,-1.507080160081386566e-02,1.342521514743566513e-03,2.138321101665496826e-02,8.091199398040771484e-02,3.506193310022354126e-02,1.817335747182369232e-02
1.679121889173984528e-02,3.108030743896961212e-02,-2.647362053394317627e-01,2.704861164093017578e-01,-1.177721172571182251e-01,-3.700239658355712891e-01,2.424562275409698486e-01,1.449925154447555542e-01,8.278345316648483276e-02
-2.041469514369964600e-02,-2.315674424171447754e-01,7.417072076350450516e-03,3.709598095156252384e-04,-8.621100336313247681e-02,2.820631861686706543e-01,1.200396791100502014e-01,-1.184165850281715393e-02,-1.467303782701492310e-01
1.573779135942459106e-01,9.624529629945755005e-02,5.487908050417900085e-02,1.982649788260459900e-03,9.933333098888397217e-02,-4.809750616550445557e-02,3.762222453951835632e-02,1.775470376014709473e-01,-4.385566338896751404e-02
5.500435084104537964e-02,5.807523056864738464e-02,-8.184994757175445557e-02,3.399310633540153503e-03,8.047455549240112305e-02,-4.729058966040611267e-02,-4.730935022234916687e-02,1.851938366889953613e-01,8.750218152999877930e-02
4.464762657880783081e-02,1.296116560697555542e-01,-6.512162089347839355e-02,2.467268332839012146e-02,1.758369356393814087e-01,1.129196137189865112e-01,-2.747702300548553467e-01,8.403085172176361084e-02,1.670416146516799927e-01
5.903372541069984436e-02,1.538735479116439819e-01,1.714069694280624390e-01,1.108211502432823181e-01,7.623877376317977905e-02,2.608876116573810577e-02,-1.808852255344390869e-01,-3.441831767559051514e-01,-4.383410513401031494e-01
-5.107886195182800293e-01,-1.390461772680282593e-01,1.508347392082214355e-01,-2.055063098669052124e-01,3.559558093547821045e-01,1.277365684509277344e-01,3.594677746295928955e-01,1.975925117731094360e-01,-2.586733400821685791e-01
1.268977373838424683e-01,-3.898754017427563667e-03,-1.525156646966934204e-01,-7.687029987573623657e-02,-1.372933983802795410e-01,-6.249707564711570740e-02,1.058314274996519089e-02,1.460932046175003052e-01,1.515323966741561890e-01
-1.376068592071533203e-01,-3.845547437667846680e-01,-2.336234897375106812e-01,-5.175190567970275879e-01,-7.726120203733444214e-02,1.681239902973175049e-01,7.740453630685806274e-02,1.951893270015716553e-01,2.082698494195938110e-01
-1.005410552024841309e-01,-1.855129003524780273e-02,4.181258752942085266e-02,2.619443833827972412e-02,1.724674552679061890e-01,-1.425376683473587036e-01,-1.233007293194532394e-02,-7.525081932544708252e-02,-1.187779847532510757e-02
6.840293295681476593e-03,1.414645463228225708e-02,4.423343017697334290e-02,2.608719840645790100e-02,-7.167077157646417618e-03,1.264117565006017685e-02,6.019286066293716431e-02,2.906351722776889801e-02,5.354639142751693726e-02
-1.760666668415069580e-01,-4.210065603256225586e-01,-2.290448993444442749e-01,-3.748008310794830322e-01,-1.939439773559570312e-02,1.429002434015274048e-01,5.435161292552947998e-02,1.152471452951431274e-01,2.657215297222137451e-01
-2.754173800349235535e-02,6.663862615823745728e-02,-7.660720497369766235e-02,-2.354794144630432129e-01,-1.790549606084823608e-01,-2.028861790895462036e-01,6.041445210576057434e-02,2.192034199833869934e-02,2.571414709091186523e-01
-8.184491097927093506e-02,4.883960261940956116e-02,-3.621200844645500183e-02,5.224294215440750122e-02,9.489057213068008423e-02,-1.406142562627792358e-01,3.936949744820594788e-02,-7.113218307495117188e-02,-1.161112822592258453e-02
1.230048164725303650e-01,8.992954343557357788e-02,1.627988815307617188e-01,1.320969313383102417e-01,1.627168208360671997e-01,1.335504949092864990e-01,-3.047784566879272461e-01,-3.330914378166198730e-01,-4.626899585127830505e-02
-3.242864012718200684e-01,-1.955969035625457764e-01,2.035787254571914673e-01,-3.769711852073669434e-01,3.448965772986412048e-02,2.628318965435028076e-01,-3.207658827304840088e-01,-1.234829947352409363e-01,2.646476328372955322e-01
-8.779773116111755371e-02,-3.430257737636566162e-01,-5.944379046559333801e-02,-5.367875099182128906e-02,-7.269872725009918213e-02,1.158632338047027588e-02,1.751418709754943848e-01,3.171041011810302734e-01,1.334569156169891357e-01
-2.250022999942302704e-02,1.696775257587432861e-01,-1.021583676338195801e-01,-1.368787698447704315e-02,3.303249180316925049e-02,-1.270310580730438232e-01,1.078719347715377808e-01,2.412592321634292603e-01,-5.349518731236457825e-03
-2.842120826244354248e-01,-2.607754468917846680e-01,-5.383897945284843445e-02,-4.392521455883979797e-02,5.731214210391044617e-02,6.641234457492828369e-02,2.557220160961151123e-01,2.417799830436706543e-01,-1.351085398346185684e-02
-2.302256040275096893e-02,-2.898823022842407227e-01,-1.749210655689239502e-01,1.180048137903213501e-01,2.070071995258331299e-01,9.230000525712966919e-02,-4.246294964104890823e-03,2.915462478995323181e-02,3.573169186711311340e-02
2.635055482387542725e-01,2.501852214336395264e-01,2.803004980087280273e-01,2.657685615122318268e-02,2.526286430656909943e-02,-2.645705826580524445e-02,-3.587629199028015137e-01,-4.080140590667724609e-01,-1.293404251337051392e-01
-3.821747004985809326e-02,-1.257176399230957031e-01,-3.653461858630180359e-02,1.372449845075607300e-01,6.263910233974456787e-02,1.397975534200668335e-01,4.462796449661254883e-02,-1.404029875993728638e-01,1.076705157756805420e-01
-1.441854089498519897e-01,-2.690440416336059570e-01,-1.969879567623138428e-01,6.586850434541702271e-02,5.227064713835716248e-02,1.199100092053413391e-01,6.315724551677703857e-02,1.522473394870758057e-01,1.142818629741668701e-01
-2.647888362407684326e-01,-3.404074311256408691e-01,-1.294943541288375854e-01,-2.371143400669097900e-01,1.711517572402954102e-03,2.247587442398071289e-01,2.349163889884948730e-01,3.279438316822052002e-01,1.742125749588012695e-01
-4.391092434525489807e-02,-2.963056564331054688e-01,-2.186406850814819336e-01,2.236795425415039062e-02,-1.654572337865829468e-01,-5.023819580674171448e-02,3.166610300540924072e-01,2.843036055564880371e-01,1.593167334794998169e-01
-1.134808659553527832e-01,7.593291252851486206e-02,7.892400957643985748e-03,-3.167658299207687378e-02,1.563714146614074707e-01,-1.150850132107734680e-01,-7.962382584810256958e-02,1.717810332775115967e-01,-8.201140165328979492e-02
-2.140979766845703125e-01,2.259826101362705231e-02,1.336266547441482544e-01,1.417333334684371948e-01,2.042289823293685913e-01,1.026389226317405701e-01,4.234865307807922363e-02,-1.330415755510330200e-01,-3.328835070133209229e-01
2.494931034743785858e-02,6.316432356834411621e-02,2.902017533779144287e-01,-2.071590535342693329e-02,1.783154457807540894e-01,9.489353746175765991e-02,-3.054346144199371338e-01,-3.962675929069519043e-01,-3.988655507564544678e-01
8.188217878341674805e-02,8.459416031837463379e-02,2.001883387565612793e-01,1.166737079620361328e-01,1.867506206035614014e-01,6.801300495862960815e-02,-3.079144060611724854e-01,-3.300433456897735596e-01,-2.947383224964141846e-01
-1.724815964698791504e-01,-1.681252755224704742e-02,2.256876677274703979e-01,-3.473463952541351318e-01,-1.204727496951818466e-02,3.105434477329254150e-01,-3.098794221878051758e-01,4.911682009696960449e-02,2.720899283885955811e-01
-7.894381880760192871e-02,-5.406561493873596191e-01,-2.096673846244812012e-01,2.870642840862274170e-01,-1.217584758996963501e-01,-1.932521909475326538e-01,2.791175246238708496e-01,2.977733016014099121e-01,2.912973985075950623e-02
1.299838572740554810e-01,1.522597670555114746e-01,-4.572646319866180420e-02,1.479251682758331299e-01,-4.645054787397384644e-02,1.910392567515373230e-02,1.444173902273178101e-01,1.139102131128311157e-01,5.823860689997673035e-02
-2.233822084963321686e-02,-8.736284822225570679e-02,-1.023682728409767151e-01,-9.386558830738067627e-02,6.202822085469961166e-03,-1.009317263960838318e-01,-9.314194321632385254e-02,-9.069963358342647552e-03,-9.806504100561141968e-02
2.056317403912544250e-02,-1.111227460205554962e-02,5.436177924275398254e-02,1.701899766921997070e-01,-2.251346828415989876e-03,-7.044979184865951538e-02,9.488320350646972656e-02,-5.872745811939239502e-02,-2.157625406980514526e-01
-3.018108606338500977e-01,1.452125515788793564e-02,-5.090158898383378983e-03,9.234510362148284912e-02,1.349635273218154907e-01,8.864802122116088867e-02,1.505686044692993164e-01,-1.290603578090667725e-01,-1.810635179281234741e-01
-3.824663534760475159e-02,-3.590557873249053955e-01,-2.665422856807708740e-01,1.160315647721290588e-01,5.640831962227821350e-02,2.409922331571578979e-01,1.829457879066467285e-01,1.717280000448226929e-01,4.319461807608604431e-02
-1.019588671624660492e-02,-4.085666313767433167e-02,-5.562256276607513428e-02,-3.067043237388134003e-02,8.648677915334701538e-02,8.480618149042129517e-02,7.513721287250518799e-02,-1.183500811457633972e-01,-3.383703157305717468e-02
3.058156557381153107e-02,2.281793802976608276e-01,3.588948845863342285e-01,-1.599993854761123657e-01,-7.315953820943832397e-02,3.817591350525617599e-03,-3.589333295822143555e-01,-5.062014460563659668e-01,-2.809790670871734619e-01
5.591488629579544067e-02,2.220640033483505249e-01,8.579508215188980103e-02,-9.233498573303222656e-02,1.213304325938224792e-01,2.535198628902435303e-01,-2.958936393260955811e-01,-3.221881091594696045e-01,-8.600139617919921875e-02
-3.400013446807861328e-01,2.735508605837821960e-02,1.322737932205200195e-01,-5.250053852796554565e-02,3.294450938701629639e-01,8.828409016132354736e-02,1.233687847852706909e-01,1.261651217937469482e-01,-3.243987560272216797e-01
-1.457610130310058594e-01,2.096928060054779053e-01,1.253777742385864258e-01,9.860215336084365845e-02,3.643069267272949219e-01,-3.100514411926269531e-02,6.464292109012603760e-02,-1.719626933336257935e-01,-4.056166410446166992e-01
7.208047062158584595e-02,3.791588172316551208e-02,-2.096705697476863861e-02,-1.960916444659233093e-02,2.555057406425476074e-02,5.058850347995758057e-02,9.804086387157440186e-02,4.867558926343917847e-02,3.392740339040756226e-02
2.754454314708709717e-01,1.298393607139587402e-01,-2.601759135723114014e-01,5.385600030422210693e-02,-1.668916195631027222e-01,-4.271704554557800293e-01,-4.816487729549407959e-01,-6.691478490829467773e-01,-1.164884120225906372e-01
-3.778737783432006836e-01,-6.483955308794975281e-03,1.051331236958503723e-01,-8.814056962728500366e-02,1.162455976009368896e-01,1.719624251127243042e-01,-2.239162102341651917e-03,-2.121736481785774231e-02,1.223404109477996826e-01
-1.617523282766342163e-02,1.831992715597152710e-02,4.967129603028297424e-02,6.410812586545944214e-02,6.983464211225509644e-02,-1.799717545509338379e-02,9.596838802099227905e-02,-5.259174108505249023e-02,5.706714466214179993e-02
-3.045031987130641937e-02,8.096270263195037842e-02,1.525329202413558960e-01,1.649738252162933350e-01,1.306198090314865112e-01,6.607267260551452637e-02,-1.385712027549743652e-01,-2.482120990753173828e-01,-2.354629337787628174e-01
4.404990747570991516e-02,-1.245496645569801331e-01,1.904685050249099731e-02,-5.781196430325508118e-02,1.459985375404357910e-01,-5.355537682771682739e-02,-1.633472144603729248e-01,-2.926871739327907562e-02,6.103693693876266479e-02
-1.608835533261299133e-02,-3.039776682853698730e-01,-3.512910380959510803e-02,7.976669818162918091e-02,-4.505721107125282288e-02,2.921864092350006104e-01,-3.775628656148910522e-02,-1.870370209217071533e-01,8.230919390916824341e-02
1.506703943014144897e-01,-2.161296270787715912e-02,-7.042811810970306396e-02,9.652908146381378174e-02,-1.973057091236114502e-01,8.547007292509078979e-02,1.719775423407554626e-02,5.055795609951019287e-02,6.568835675716400146e-02
7.172562927007675171e-02,-2.765740156173706055e-01,-2.200832590460777283e-02,3.422138094902038574e-02,1.437373161315917969e-01,1.821985542774200439e-01,-5.434160307049751282e-02,-1.794715225696563721e-01,-8.243531733751296997e-02
-5.223610997200012207e-02,7.060449570417404175e-02,3.410334885120391846e-02,3.806776553392410278e-02,6.747519969940185547e-02,1.079321000725030899e-02,1.068741306662559509e-01,6.043293699622154236e-02,2.464996278285980225e-02
1.410592198371887207e-01,1.569956690073013306e-01,2.800688147544860840e-01,-1.866949647665023804e-01,1.691205501556396484e-01,-1.115896403789520264e-01,-4.649770557880401611e-01,-4.464038908481597900e-01,-4.076466858386993408e-01
1.449175477027893066e-01,-1.516999453306198120e-01,-3.254539966583251953e-01,2.560454905033111572e-01,2.723601460456848145e-02,-2.055942416191101074e-01,8.558624237775802612e-02,2.276273816823959351e-01,-5.164827033877372742e-02
1.319995075464248657e-01,1.969024389982223511e-01,1.857042126357555389e-02,-7.178552448749542236e-02,-2.479871660470962524e-01,-2.198146730661392212e-01,-9.713585313875228167e-05,-1.911699958145618439e-02,1.104011535644531250e-01
-1.916468739509582520e-01,-1.638578027486801147e-01,-2.041096595348790288e-04,-1.896517872810363770e-01,1.922739893198013306e-01,1.822441220283508301e-01,9.568826854228973389e-02,8.977741934359073639e-03,4.441223107278347015e-03
1.071745529770851135e-01,1.590566784143447876e-01,7.347228378057479858e-02,-1.445474475622177124e-01,1.035812646150588989e-01,1.221485733985900879e-01,-3.494673371315002441e-01,-2.154828310012817383e-01,8.013401180505752563e-02
-9.882640838623046875e-02,-7.167715579271316528e-02,6.040532514452934265e-02,1.102242544293403625e-01,3.170226141810417175e-02,1.071840524673461914e-01,1.306932270526885986e-01,7.947158999741077423e-03,2.779272198677062988e-02
-1.919500529766082764e-01,1.434758305549621582e-01,1.052925512194633484e-01,1.102455258369445801e-01,2.923037409782409668e-01,1.867157220840454102e-02,1.517955213785171509e-01,-1.340471804141998291e-01,-3.858039081096649170e-01
-6.224338337779045105e-02,4.542450606822967529e-02,-2.896085940301418304e-02,1.892861723899841309e-02,5.823590978980064392e-02,-3.213022649288177490e-02,-6.594184786081314087e-02,-5.033283680677413940e-02,1.119943521916866302e-02
7.306987792253494263e-02,1.448911130428314209e-01,1.717527806758880615e-01,-1.642223000526428223e-01,3.157650353386998177e-03,9.359318763017654419e-02,-2.547284364700317383e-01,-2.566415369510650635e-01,8.580330014228820801e-02
7.268837094306945801e-02,1.057430356740951538e-01,5.592412501573562622e-02,9.676703810691833496e-02,8.651137351989746094e-02,-2.141827484592795372e-03,1.247682720422744751e-01,9.734155982732772827e-02,6.776361912488937378e-02
7.308682054281234741e-02,2.340663224458694458e-01,1.934795975685119629e-01,-2.522456645965576172e-01,-9.984929859638214111e-02,2.295845299959182739e-01,-2.333940416574478149e-01,-2.478865683078765869e-01,5.610721185803413391e-02
-8.593130111694335938e-02,1.063756719231605530e-01,3.238240480422973633e-01,-1.660492271184921265e-01,-2.116423286497592926e-02,-1.396400015801191330e-02,2.206904888153076172e-01,-3.702285140752792358e-02,-3.713436424732208252e-01
7.133162766695022583e-02,8.241722732782363892e-02,1.157633662223815918e-01,7.209809124469757080e-02,1.529206931591033936e-01,-1.008065789937973022e-01,9.920407086610794067e-02,7.831068336963653564e-02,-2.223437279462814331e-01
3.816631734371185303e-01,-9.175188839435577393e-02,-3.898011744022369385e-01,2.629671394824981689e-01,3.401350229978561401e-03,-2.780526578426361084e-01,1.352921426296234131e-01,-3.253340721130371094e-01,-3.648421466350555420e-01
6.961438059806823730e-02,4.886338114738464355e-02,-3.022010326385498047e-01,-2.896353602409362793e-02,6.498134694993495941e-03,2.526621706783771515e-02,4.474367015063762665e-03,1.037614569067955017e-01,1.209829077124595642e-01
2.353568673133850098e-01,1.623414158821105957e-01,-4.624789953231811523e-01,1.277407854795455933e-01,-1.235143765807151794e-01,-3.041432499885559082e-01,1.271003037691116333e-01,-2.244566529989242554e-01,-5.007522925734519958e-02
-5.368284508585929871e-02,1.003395840525627136e-01,-1.263814717531204224e-01,-8.360548317432403564e-02,1.896545588970184326e-01,-1.797384917736053467e-01,3.325033560395240784e-02,6.347986310720443726e-02,-1.915079541504383087e-02
8.955395966768264771e-02,1.064839288592338562e-01,-2.358517795801162720e-01,-1.451540272682905197e-02,-4.743789434432983398e-01,-2.366050630807876587e-01,-2.840480506420135498e-01,-2.059961408376693726e-01,1.992715448141098022e-01
-3.290769457817077637e-01,-1.192434579133987427e-01,7.818562537431716919e-02,1.315119713544845581e-01,1.896042972803115845e-01,1.571926623582839966e-01,-7.820260524749755859e-02,-4.113866388797760010e-02,-1.138644218444824219e-01
2.666223049163818359e-01,3.618105947971343994e-01,-6.643228977918624878e-02,2.478952258825302124e-01,3.933718428015708923e-02,-2.697240114212036133e-01,-3.157494962215423584e-01,-5.580163002014160156e-01,-3.519107103347778320e-01
-2.228258848190307617e-01,-1.220863461494445801e-01,-1.612292528152465820e-01,-8.450996875762939453e-02,-1.530745923519134521e-01,-1.205893829464912415e-01,2.663478553295135498e-01,2.174884825944900513e-01,3.030734658241271973e-01
-3.437536060810089111e-01,-2.310766577720642090e-01,3.864375352859497070e-01,-4.459872245788574219e-01,-6.101503223180770874e-02,2.348314821720123291e-01,-3.090474307537078857e-01,-3.376058489084243774e-02,2.547311186790466309e-01
-3.811084032058715820e-01,-2.242095917463302612e-01,-1.038025915622711182e-01,-7.174739986658096313e-02,-3.026154451072216034e-02,3.695229068398475647e-02,3.753354549407958984e-01,2.040495723485946655e-01,-1.502511464059352875e-02
2.139325253665447235e-02,7.830991595983505249e-02,-4.681657254695892334e-02,-3.003994701430201530e-03,3.840900212526321411e-02,-2.739748358726501465e-02,-1.210314109921455383e-01,-1.858533732593059540e-02,7.648877799510955811e-02
-6.396061182022094727e-02,3.172091394662857056e-02,4.036446660757064819e-02,-7.994483225047588348e-03,4.031923785805702209e-02,-3.870620578527450562e-02,-3.005694746971130371e-01,-5.456301569938659668e-02,4.766998440027236938e-02
1.450581252574920654e-01,-6.922728568315505981e-02,-4.551020562648773193e-01,2.817125320434570312e-01,-5.051545333117246628e-03,-2.212761044502258301e-01,7.921138405799865723e-02,2.574771642684936523e-01,1.902365870773792267e-02
1.673633009195327759e-01,-3.967607766389846802e-02,4.324679449200630188e-02,-1.061769574880599976e-02,5.798727646470069885e-02,-1.572672277688980103e-02,9.718161821365356445e-02,1.077687665820121765e-01,-1.828427761793136597e-01
1.623018532991409302e-01,-1.100200340151786804e-01,-6.923260539770126343e-02,-2.700527943670749664e-02,-2.271379157900810242e-02,3.052979148924350739e-02,8.795209974050521851e-02,9.928050637245178223e-02,-4.799274727702140808e-03
-8.512142300605773926e-02,-3.170583397150039673e-02,6.134413927793502808e-02,-1.731593012809753418e-01,2.323561906814575195e-01,4.361343011260032654e-02,2.410202100872993469e-02,1.730852425098419189e-01,-1.844605207443237305e-01
-3.227079212665557861e-01,-2.935049533843994141e-01,-3.515358269214630127e-02,-2.275270372629165649e-01,1.179598420858383179e-01,1.874300986528396606e-01,1.499127894639968872e-01,1.731103956699371338e-01,2.241074442863464355e-01
6.456503272056579590e-02,1.254337374120950699e-02,6.859338283538818359e-02,1.028883606195449829e-01,7.743449509143829346e-02,3.959307447075843811e-03,1.364046633243560791e-01,1.081265285611152649e-01,5.784803256392478943e-02
9.495909512042999268e-02,1.936657428741455078e-01,1.112503185868263245e-01,1.108601465821266174e-01,1.319235414266586304e-01,9.331369400024414062e-02,-4.625271558761596680e-01,-2.883131504058837891e-01,-6.822572648525238037e-02
-8.308928459882736206e-02,-1.394011527299880981e-01,3.744120523333549500e-02,-1.863887757062911987e-01,-2.043092064559459686e-02,1.204731315374374390e-01,1.113745793700218201e-01,-3.475376963615417480e-02,7.983740419149398804e-02
-8.809541165828704834e-02,1.865420490503311157e-01,2.198743820190429688e-01,-3.355248868465423584e-01,-4.201871752738952637e-01,-1.600353717803955078e-01,3.031317591667175293e-01,1.735585480928421021e-01,-1.457178145647048950e-01
8.087713271379470825e-02,-1.125800609588623047e-01,-1.209462434053421021e-01,1.661141216754913330e-01,-1.150257065892219543e-01,-4.651356860995292664e-02,-7.650592923164367676e-02,2.093774378299713135e-01,1.681239157915115356e-01
1.596493422985076904e-01,-1.779127269983291626e-01,-2.344482950866222382e-02,4.871019348502159119e-02,-2.168040573596954346e-01,8.637719601392745972e-02,1.467352956533432007e-01,-1.011278331279754639e-01,5.359275266528129578e-02
3.024930059909820557e-01,-1.377580165863037109e-01,-4.728251397609710693e-01,1.982281655073165894e-01,-4.510402083396911621e-01,-2.895176410675048828e-02,-1.216105278581380844e-02,-4.869216382503509521e-01,4.155768454074859619e-02
1.853339932858943939e-02,-1.508621312677860260e-02,-6.252118945121765137e-02,8.310860395431518555e-02,1.835249662399291992e-01,-4.345583543181419373e-02,-7.756613194942474365e-02,3.939837217330932617e-02,1.558003276586532593e-01
8.150111138820648193e-02,7.178962975740432739e-02,1.709552705287933350e-01,1.515914499759674072e-01,6.703110411763191223e-03,-9.154275059700012207e-02,-1.401693820953369141e-01,-1.484361886978149414e-01,-2.363888323307037354e-01
3.771572187542915344e-02,6.229282170534133911e-02,-5.863493308424949646e-02,-5.153418704867362976e-02,1.005487293004989624e-01,1.787942089140415192e-02,-7.501858472824096680e-02,4.214194044470787048e-02,4.221969097852706909e-02
8.587645739316940308e-02,7.855539023876190186e-02,2.784899808466434479e-02,-9.350803494453430176e-02,5.714397877454757690e-02,-5.535349994897842407e-02,1.121335700154304504e-01,1.731453537940979004e-01,-4.080243408679962158e-02
-1.599984467029571533e-01,-3.714348748326301575e-02,1.088175103068351746e-01,-1.216697096824645996e-01,2.344570457935333252e-01,3.128470852971076965e-03,4.842512682080268860e-02,1.081148907542228699e-01,-1.331733018159866333e-01
-2.427709847688674927e-02,1.852473616600036621e-01,2.084611803293228149e-01,-1.471890807151794434e-01,7.766921538859605789e-03,1.927176117897033691e-01,-3.378958702087402344e-01,-1.978372484445571899e-01,1.338615268468856812e-01
-6.189268082380294800e-02,8.819780498743057251e-02,-6.150236725807189941e-02,-2.857068553566932678e-02,2.517526149749755859e-01,1.954714208841323853e-02,-1.573917567729949951e-01,-8.511304855346679688e-02,1.060966551303863525e-01
5.017453804612159729e-02,-1.341070532798767090e-01,3.522873669862747192e-02,5.907079204916954041e-02,-5.422199517488479614e-02,8.369567990303039551e-02,6.965260021388530731e-03,-1.661473214626312256e-01,-6.909167766571044922e-02
8.585301786661148071e-02,-1.380091607570648193e-01,-4.529175162315368652e-02,-4.991366341710090637e-02,-9.461092948913574219e-02,7.553966343402862549e-02,9.628049284219741821e-02,1.211789026856422424e-01,9.967726469039916992e-02
-5.014882236719131470e-02,-9.073111414909362793e-02,2.111423611640930176e-01,-1.003049220889806747e-02,-2.098357379436492920e-01,1.724059432744979858e-01,2.338299006223678589e-01,-2.734551727771759033e-01,-9.203383326530456543e-02
1.282443292438983917e-02,4.771739244461059570e-02,5.571506917476654053e-02,1.602132245898246765e-02,2.886531292460858822e-04,-5.041785771027207375e-04,2.359070628881454468e-02,7.347361743450164795e-02,5.422037094831466675e-02
-2.096795290708541870e-01,-1.446337401866912842e-01,1.839999854564666748e-01,-3.096918165683746338e-01,5.358751490712165833e-02,2.533046901226043701e-01,-3.116037137806415558e-02,1.327322274446487427e-01,6.461483985185623169e-02
-7.935125380754470825e-02,-8.689968287944793701e-02,-1.587254181504249573e-02,7.413133233785629272e-02,3.930566832423210144e-02,9.390901029109954834e-02,-1.261307001113891602e-01,-2.401758171617984772e-02,-1.342194080352783203e-01
2.891951613128185272e-02,5.363079532980918884e-02,-1.070049628615379333e-01,3.822116553783416748e-02,-7.185278832912445068e-02,1.127939224243164062e-01,-5.958566907793283463e-03,1.258644908666610718e-01,-1.128550544381141663e-01
3.014762997627258301e-01,5.011534690856933594e-02,-3.588692545890808105e-01,1.561308652162551880e-01,-2.073061093688011169e-02,-2.082889676094055176e-01,7.409340143203735352e-02,-2.795726954936981201e-01,-5.357292294502258301e-01
-1.692016050219535828e-02,-3.130272328853607178e-01,-3.731493353843688965e-01,5.139793083071708679e-02,-1.870200596749782562e-02,4.320091754198074341e-02,9.730665385723114014e-02,1.761608719825744629e-01,3.107331991195678711e-01
-2.670342326164245605e-01,-1.147907972335815430e-02,8.582676947116851807e-02,-6.899435818195343018e-02,1.260644793510437012e-01,1.384240239858627319e-01,6.386703252792358398e-02,-8.883016998879611492e-04,-2.863798439502716064e-01
-2.469424605369567871e-01,6.733129173517227173e-02,8.624891936779022217e-02,-3.292603790760040283e-02,1.664484590291976929e-01,-1.735935173928737640e-02,1.368051916360855103e-01,7.305701076984405518e-02,-1.814717501401901245e-01
3.066753782331943512e-02,1.657408326864242554e-01,-4.141065105795860291e-02,-1.178354471921920776e-01,1.592821031808853149e-01,-6.701494008302688599e-02,-9.793443232774734497e-02,9.931559115648269653e-02,6.687434017658233643e-02
-5.394188314676284790e-02,2.771806120872497559e-01,3.277554512023925781e-01,1.759143732488155365e-02,5.802780017256736755e-02,-1.292844954878091812e-02,2.626918256282806396e-02,-2.948112785816192627e-01,-3.729366064071655273e-01
3.878377005457878113e-02,-6.115486472845077515e-02,1.064914539456367493e-01,-1.467878185212612152e-02,1.247792784124612808e-02,-1.245861276984214783e-01,-1.116536781191825867e-01,1.369199156761169434e-01,-1.012644097208976746e-01
1.064788103103637695e-01,2.205263823270797729e-02,-8.295024931430816650e-02,2.837082147598266602e-01,-1.399365216493606567e-01,-3.721855282783508301e-01,1.444694101810455322e-01,7.579945772886276245e-02,-4.434423893690109253e-02
-2.701139748096466064e-01,4.979813937097787857e-03,2.137406766414642334e-01,6.775525957345962524e-02,1.491950005292892456e-01,1.082448139786720276e-01,1.483504474163055420e-01,-4.813698120415210724e-03,-3.188367187976837158e-01
-3.101074695587158203e-01,-5.017848312854766846e-02,6.489329785108566284e-02,4.321660101413726807e-02,2.142385393381118774e-01,1.081589907407760620e-01,1.394969075918197632e-01,7.644574344158172607e-02,-2.410786747932434082e-01
6.276825815439224243e-02,1.819484084844589233e-01,7.477711886167526245e-02,-1.978724002838134766e-01,-4.278450608253479004e-01,-3.546370863914489746e-01,1.395444422960281372e-01,1.441691219806671143e-01,2.568574845790863037e-01
1.062510441988706589e-02,-1.524321734905242920e-01,5.035946518182754517e-02,2.394174039363861084e-02,-2.172588557004928589e-01,-1.404619216918945312e-01,1.643541008234024048e-01,-6.773288547992706299e-02,1.253763288259506226e-01
7.744727283716201782e-02,1.918580383062362671e-01,7.577091455459594727e-02,2.972025796771049500e-02,-1.488737948238849640e-02,1.185373067855834961e-01,-2.783104181289672852e-01,-1.756534576416015625e-01,-1.764751039445400238e-02
-3.963671997189521790e-02,1.625917665660381317e-02,-5.709007382392883301e-02,-2.987536136060953140e-03,-6.561458110809326172e-02,-1.823806203901767731e-02,-9.097740054130554199e-03,2.150329388678073883e-02,1.416073366999626160e-02
-1.818628050386905670e-02,4.654471203684806824e-02,7.771333307027816772e-02,6.067481637001037598e-02,2.528029866516590118e-02,8.089549839496612549e-02,-5.087251961231231689e-02,6.826692819595336914e-02,3.092858009040355682e-02
5.160844326019287109e-02,1.138222292065620422e-01,1.475637406110763550e-01,1.230129376053810120e-01,1.388634592294692993e-01,-1.740501821041107178e-01,-6.713398615829646587e-04,5.848020780831575394e-03,-2.827368974685668945e-01
2.495240047574043274e-02,-1.411670539528131485e-02,-3.125923275947570801e-01,1.205366030335426331e-01,-8.784601837396621704e-02,-3.696499764919281006e-01,2.177465409040451050e-01,2.243387550115585327e-01,-5.540008842945098877e-02
1.806750446557998657e-01,1.909066885709762573e-01,-5.480159074068069458e-02,2.003195434808731079e-01,-3.664508834481239319e-02,-2.958158552646636963e-01,1.346868090331554413e-02,-1.518784314393997192e-01,-1.680206060409545898e-01
7.957149296998977661e-03,1.867289394140243530e-01,3.098872601985931396e-01,-4.596799314022064209e-01,-3.068642616271972656e-01,1.703217998147010803e-02,-1.908430014736950397e-03,-3.387795686721801758e-01,-4.371056258678436279e-01
4.143571481108665466e-02,-3.199305236339569092e-01,-2.568903863430023193e-01,3.415586650371551514e-01,-7.813152670860290527e-02,-3.653986155986785889e-01,2.391230762004852295e-01,3.305149078369140625e-01,5.574362352490425110e-02
-1.358362883329391479e-01,-9.647732600569725037e-03,-1.280782558023929596e-02,9.303235262632369995e-02,4.076042026281356812e-02,2.439611963927745819e-02,6.771089136600494385e-02,9.103044867515563965e-02,1.172801181674003601e-01
1.746580898761749268e-01,1.446444094181060791e-01,1.712363213300704956e-01,-1.727436482906341553e-02,7.107315212488174438e-02,1.258125603199005127e-01,-2.269217818975448608e-01,-2.522456943988800049e-01,-1.765809655189514160e-01
1.585879474878311157e-01,1.108247116208076477e-01,1.343195438385009766e-01,5.743519961833953857e-02,3.424763306975364685e-02,-2.375564537942409515e-02,9.506838768720626831e-02,1.543345451354980469e-01,7.774969935417175293e-02
1.256702747195959091e-02,1.894371062517166138e-01,-3.411812484264373779e-01,-1.443028170615434647e-02,3.513447642326354980e-01,-1.373000293970108032e-01,-2.380654215812683105e-01,1.700861006975173950e-01,9.891203790903091431e-02
-5.142872780561447144e-02,1.241381987929344177e-01,4.693146795034408569e-02,4.134464543312788010e-03,3.868545638397336006e-03,3.448903933167457581e-02,-2.598303183913230896e-02,5.795348901301622391e-03,6.286550313234329224e-02
1.001392230391502380e-01,-8.822079002857208252e-02,-7.821252942085266113e-02,5.259120836853981018e-02,1.449741125106811523e-01,9.689122438430786133e-02,-6.081820279359817505e-02,-8.597355335950851440e-03,8.202388882637023926e-02
-1.823275238275527954e-01,1.336261332035064697e-01,8.342252671718597412e-02,3.377616778016090393e-02,1.024010106921195984e-01,-1.116134971380233765e-01,2.949348464608192444e-02,1.142152845859527588e-01,-1.500586122274398804e-01
-1.057608276605606079e-01,-3.391845151782035828e-02,1.295581310987472534e-01,3.021469898521900177e-02,1.665870696306228638e-01,-8.174326270818710327e-02,5.350892618298530579e-02,-2.185038290917873383e-03,-6.799030303955078125e-02
1.697881221771240234e-01,-1.891601383686065674e-01,8.357651531696319580e-02,2.323591336607933044e-02,-2.129402756690979004e-01,2.034443244338035583e-02,4.295343905687332153e-02,-7.109321653842926025e-02,9.816271811723709106e-02
-4.828087985515594482e-01,-2.605785988271236420e-02,1.765361279249191284e-01,-2.957760691642761230e-01,-5.598332732915878296e-02,2.338099032640457153e-01,-2.976662218570709229e-01,-3.406361211091279984e-04,1.647151559591293335e-01
8.129101246595382690e-02,1.853255629539489746e-01,1.783675402402877808e-01,-1.075035184621810913e-01,-1.489542145282030106e-02,1.438206136226654053e-01,-2.965227961540222168e-01,-2.075393050909042358e-01,-9.192261844873428345e-02
1.052931696176528931e-01,3.961435332894325256e-02,-2.329661995172500610e-01,1.894438713788986206e-01,3.180658072233200073e-02,-3.204365670680999756e-01,1.996067166328430176e-01,1.311728172004222870e-02,-3.618872910737991333e-02
1.361376792192459106e-01,-2.239145040512084961e-01,-1.723254621028900146e-01,-3.999962508678436279e-01,-1.685601919889450073e-01,-3.894475102424621582e-02,1.637043058872222900e-01,2.667291760444641113e-01,2.956608831882476807e-01
2.461251802742481232e-02,1.840024739503860474e-01,1.748091727495193481e-01,1.242586150765419006e-01,4.256205633282661438e-02,6.974324584007263184e-02,-2.344963401556015015e-01,-2.884618639945983887e-01,-2.102022469043731689e-01
-3.862683176994323730e-01,-1.362359058111906052e-02,2.226511538028717041e-01,-3.187582194805145264e-01,-1.139585003256797791e-01,2.201259881258010864e-01,-2.344480454921722412e-01,-1.210310086607933044e-01,2.366140633821487427e-01
-2.409558556973934174e-02,-1.710690557956695557e-02,1.415085494518280029e-01,1.040765270590782166e-01,9.665577858686447144e-02,3.874134644865989685e-02,-2.820155117660760880e-03,-7.893601059913635254e-02,-1.709270924329757690e-01
2.196856886148452759e-01,5.874879285693168640e-02,-2.157501131296157837e-01,1.249061822891235352e-01,7.085878401994705200e-02,-2.065346837043762207e-01,1.413023024797439575e-01,-2.228062301874160767e-01,-2.427762299776077271e-01
2.611829433590173721e-03,7.823745161294937134e-02,1.914443671703338623e-01,1.384841352701187134e-01,1.099083423614501953e-01,-4.297409206628799438e-02,3.032629191875457764e-02,-6.540197134017944336e-02,-1.835884600877761841e-01
1.847137063741683960e-01,1.363117843866348267e-01,-1.663248427212238312e-02,1.198058109730482101e-02,2.201030850410461426e-01,5.578638613224029541e-02,-3.315338790416717529e-01,-3.235036134719848633e-01,6.769421696662902832e-02
9.625423699617385864e-02,3.537307679653167725e-02,9.029451757669448853e-02,2.675924077630043030e-02,8.597820997238159180e-02,-1.926613412797451019e-02,4.385646060109138489e-02,1.392271183431148529e-02,-1.492690294981002808e-01
6.574673205614089966e-02,8.241006731986999512e-02,-3.256494700908660889e-01,-9.461824595928192139e-02,2.790589630603790283e-01,-4.776282981038093567e-02,-1.710622608661651611e-01,6.490409374237060547e-02,2.140056043863296509e-01
1.352221667766571045e-01,-1.322762519121170044e-01,-7.477673143148422241e-02,-4.649083316326141357e-02,-1.360665708780288696e-01,8.158111572265625000e-02,1.030587553977966309e-01,1.358109861612319946e-01,2.510709688067436218e-02
-2.136034071445465088e-01,-3.808640241622924805e-01,-1.049505174160003662e-02,-3.861813843250274658e-01,6.884715706110000610e-02,1.720777601003646851e-01,-9.570905566215515137e-02,1.502553075551986694e-01,2.709584236145019531e-01
-2.669698596000671387e-01,2.440965175628662109e-01,3.121765851974487305e-01,-6.745889782905578613e-01,-7.688520848751068115e-02,1.915812045335769653e-01,-2.795768678188323975e-01,-6.597968339920043945e-01,-3.905212581157684326e-01
-3.831741958856582642e-02,-1.563475281000137329e-02,7.128325104713439941e-02,1.576337069272994995e-01,-3.475659713149070740e-02,4.962224513292312622e-02,-2.929479070007801056e-02,9.229263663291931152e-02,1.011732667684555054e-01
1.852199584245681763e-01,2.054179161787033081e-01,1.607712209224700928e-01,9.237551130354404449e-03,-1.533072814345359802e-02,1.429404132068157196e-02,-3.081527948379516602e-01,-2.026594579219818115e-01,-7.914716005325317383e-02
-3.550749272108078003e-02,3.368719294667243958e-02,-1.646365523338317871e-01,-7.085984945297241211e-02,1.042787581682205200e-01,-1.597600132226943970e-01,-2.279219776391983032e-02,8.033525198698043823e-02,7.891844958066940308e-02
-1.641317754983901978e-01,-8.508855104446411133e-02,4.101123288273811340e-02,-3.046446740627288818e-01,1.756508052349090576e-01,2.022664248943328857e-01,2.982092089951038361e-02,-8.408568799495697021e-03,4.811026528477668762e-02
8.387755602598190308e-02,-3.572975993156433105e-01,-2.273720353841781616e-01,-2.197564393281936646e-01,-7.259553670883178711e-02,7.998004555702209473e-02,1.807536333799362183e-01,3.396244049072265625e-01,1.738798767328262329e-01
2.509852349758148193e-01,2.021786570549011230e-01,2.057432383298873901e-01,-1.782401502132415771e-01,-3.687061741948127747e-02,-4.947162047028541565e-02,-1.635935902595520020e-01,-2.769199311733245850e-01,-1.938450485467910767e-01
4.180567339062690735e-02,8.379467576742172241e-02,3.014514781534671783e-02,1.737347617745399475e-02,-1.255908422172069550e-02,-4.432987049221992493e-02,7.958590239286422729e-02,6.053482368588447571e-02,-4.922749847173690796e-02
-4.199873805046081543e-01,-2.832161784172058105e-01,-4.899796913377940655e-04,-2.872220575809478760e-01,-4.841461312025785446e-03,2.934944033622741699e-01,-1.982140988111495972e-01,2.067148834466934204e-01,2.779877781867980957e-01
-7.739578932523727417e-02,-2.392544038593769073e-02,-4.128365591168403625e-02,2.318232879042625427e-02,-5.383846908807754517e-02,1.063714548945426941e-02,-3.256265819072723389e-02,-7.098034955561161041e-03,-7.694082334637641907e-03
-1.401449441909790039e-01,6.718186289072036743e-02,2.446466237306594849e-01,1.705456525087356567e-01,1.201187819242477417e-01,-1.060969829559326172e-01,1.075948178768157959e-01,-7.497702538967132568e-02,-3.047124743461608887e-01
5.118254199624061584e-02,1.431279629468917847e-01,-2.008689790964126587e-01,-8.127515763044357300e-02,9.593231976032257080e-02,-3.717793524265289307e-02,-1.259898394346237183e-01,1.077492460608482361e-01,6.323589384555816650e-02
-4.342396259307861328e-01,1.528843045234680176e-01,2.066922336816787720e-01,-3.049067854881286621e-01,2.220780402421951294e-01,1.553423851728439331e-01,-1.737615913152694702e-01,1.066770926117897034e-01,-7.815114222466945648e-03
2.810213565826416016e-01,1.315499097108840942e-02,-4.579854309558868408e-01,9.632247686386108398e-02,-7.063402533531188965e-01,8.826648443937301636e-02,-3.072279095649719238e-01,-3.392629623413085938e-01,1.926354020833969116e-01
3.078129291534423828e-01,1.179149001836776733e-01,-1.674749255180358887e-01,1.223889663815498352e-01,8.159924298524856567e-02,-2.946082651615142822e-01,-5.239818617701530457e-02,-3.721515536308288574e-01,-4.504269659519195557e-01
-1.986462157219648361e-03,-3.161284327507019043e-01,-1.773943752050399780e-01,9.577354043722152710e-02,-1.896886527538299561e-02,6.898310035467147827e-03,1.876622140407562256e-01,2.144872099161148071e-01,1.677762866020202637e-01
1.491766571998596191e-01,1.030908077955245972e-01,1.532356590032577515e-01,1.377082169055938721e-01,9.804017096757888794e-02,8.360227942466735840e-02,-3.215199112892150879e-01,-3.040605783462524414e-01,-1.576741337776184082e-01
6.011668592691421509e-02,9.451393038034439087e-02,1.223476231098175049e-02,3.867617249488830566e-02,-2.770456857979297638e-02,2.153866924345493317e-02,-1.006222739815711975e-01,1.110121384263038635e-01,6.804934144020080566e-02
3.579961508512496948e-02,1.865488849580287933e-02,7.837847620248794556e-02,-1.490392023697495461e-03,-2.646405994892120361e-02,-1.365687511861324310e-02,5.687780305743217468e-02,5.528374016284942627e-02,-7.989699393510818481e-02
-4.596816841512918472e-03,1.818937808275222778e-01,1.837101578712463379e-01,-7.347051799297332764e-02,1.776755452156066895e-01,2.850126326084136963e-01,-4.852897822856903076e-01,-2.727029323577880859e-01,-2.184582874178886414e-02
8.053167164325714111e-02,-1.891235113143920898e-01,7.904216647148132324e-02,2.346740290522575378e-02,8.438688516616821289e-02,1.169039160013198853e-01,-2.021453380584716797e-01,-7.957417517900466919e-02,6.125164031982421875e-02
2.154970765113830566e-01,1.204948201775550842e-01,-1.001149490475654602e-01,2.205767780542373657e-01,-6.121015176177024841e-02,-3.154467642307281494e-01,2.766278386116027832e-01,-1.356730461120605469e-01,-1.254527866840362549e-01
-3.501739203929901123e-01,6.860598176717758179e-02,1.866715997457504272e-01,1.665224134922027588e-01,3.810088932514190674e-01,-7.454402744770050049e-02,1.208380833268165588e-01,-9.453434497117996216e-02,-1.763828247785568237e-01
1.418549120426177979e-01,-2.977394033223390579e-03,-2.005443722009658813e-01,8.886375278234481812e-02,6.811174005270004272e-02,2.849354222416877747e-02,-1.141987070441246033e-01,-3.951941430568695068e-02,1.693989038467407227e-01
1.772187501192092896e-01,1.428531557321548462e-01,-1.680370420217514038e-01,1.504624933004379272e-01,7.154175639152526855e-02,-1.501362174749374390e-01,-7.357274740934371948e-02,-2.862461507320404053e-01,-3.805980980396270752e-01
-8.419093489646911621e-02,-2.264117449522018433e-02,-9.754955768585205078e-02,-5.739147961139678955e-02,-1.659437268972396851e-02,-6.405399739742279053e-02,-1.092308014631271362e-02,-5.422376096248626709e-03,-7.174871116876602173e-02
-1.591573506593704224e-01,-5.258699879050254822e-02,2.285811118781566620e-02,4.913607612252235413e-02,1.005370691418647766e-01,6.123704463243484497e-02,5.970055237412452698e-02,-3.024899959564208984e-02,8.804348111152648926e-02
1.576380454935133457e-03,2.191582769155502319e-01,2.168877571821212769e-01,2.662689387798309326e-01,1.781773567199707031e-01,-2.333000600337982178e-01,8.109748363494873047e-02,-2.496187388896942139e-01,-3.198084235191345215e-01
-3.351261373609304428e-03,1.496800780296325684e-01,4.111883640289306641e-01,-1.357087343931198120e-01,-1.129557713866233826e-01,-2.266666851937770844e-03,-3.867251276969909668e-01,-5.838677287101745605e-01,-3.200656473636627197e-01
1.391102001070976257e-02,-6.983208656311035156e-02,-2.525713145732879639e-01,9.972207248210906982e-02,3.369785472750663757e-02,1.993741542100906372e-01,-1.298555731773376465e-01,-1.172051131725311279e-01,4.069687798619270325e-02
3.313523903489112854e-02,-1.586840003728866577e-01,2.971704863011837006e-02,1.124644353985786438e-01,-1.244455575942993164e-01,3.227938339114189148e-02,6.794986873865127563e-02,9.496258944272994995e-02,3.627435490489006042e-02
2.392798662185668945e-02,1.489508450031280518e-01,1.748981773853302002e-01,2.068710327148437500e-02,8.634264022111892700e-02,-9.828942269086837769e-02,1.988849341869354248e-01,1.668828167021274567e-02,-2.308995127677917480e-01
2.302893847227096558e-01,-7.933067530393600464e-02,-1.664273738861083984e-01,1.036160364747047424e-01,-6.173137947916984558e-02,-7.174954563379287720e-02,3.750362200662493706e-03,-7.201843708753585815e-02,1.436094790697097778e-01
1.705682277679443359e-01,1.621042191982269287e-01,2.102401703596115112e-01,2.886179462075233459e-02,8.440108597278594971e-02,1.132079064846038818e-01,-3.287146389484405518e-01,-2.866157293319702148e-01,-1.725054085254669189e-01
1.326379776000976562e-01,1.426212675869464874e-02,-3.948932886123657227e-02,1.232496276497840881e-01,6.578638404607772827e-02,-6.309643387794494629e-02,1.376245822757482529e-02,1.439479738473892212e-01,6.950194388628005981e-02
1.400386542081832886e-01,7.295391708612442017e-02,7.709144800901412964e-02,5.815150588750839233e-02,4.478709399700164795e-02,8.516110479831695557e-02,5.357510223984718323e-02,7.717560231685638428e-02,1.862881630659103394e-01
-2.554722316563129425e-02,1.381733268499374390e-01,3.164252638816833496e-01,-2.471233457326889038e-01,4.328770563006401062e-02,2.180148214101791382e-01,-4.355522394180297852e-01,-1.869996339082717896e-01,1.225831359624862671e-01
1.009248718619346619e-01,7.898943871259689331e-02,6.067399680614471436e-02,2.596159279346466064e-02,-6.886605918407440186e-02,6.663729250431060791e-02,1.178576573729515076e-01,9.811804443597793579e-02,-9.370266646146774292e-02
1.066064834594726562e-01,9.108275175094604492e-02,6.963551789522171021e-02,-1.411211863160133362e-02,6.999161094427108765e-02,-3.292893618345260620e-02,-1.146101132035255432e-01,1.502314656972885132e-01,-1.428366601467132568e-01
2.344912588596343994e-01,1.857370734214782715e-01,2.445717751979827881e-01,9.608756750822067261e-02,-1.956545049324631691e-03,-6.644623726606369019e-02,-3.733590543270111084e-01,-2.711516618728637695e-01,-1.419875621795654297e-01
1.267301291227340698e-01,6.020049564540386200e-03,1.407434977591037750e-02,-6.041729077696800232e-02,-7.651605457067489624e-02,-9.845479577779769897e-02,-1.931905746459960938e-02,1.963754743337631226e-01,-6.392673403024673462e-02
5.339538305997848511e-02,1.912656426429748535e-02,-5.835006758570671082e-02,-6.826551631093025208e-03,4.926075413823127747e-02,-1.311787813901901245e-01,3.492001816630363464e-02,8.258435130119323730e-02,6.629445403814315796e-02
1.862390488386154175e-01,2.414923012256622314e-01,1.469736993312835693e-01,-1.418619882315397263e-02,3.692760365083813667e-03,1.186249703168869019e-01,-3.355885148048400879e-01,-2.490438371896743774e-01,-1.224187612533569336e-01
6.726983701810240746e-04,-3.238535523414611816e-01,-3.472422361373901367e-01,1.348928511142730713e-01,7.222014665603637695e-02,-3.155336156487464905e-02,6.372350454330444336e-02,2.226962000131607056e-01,2.049644291400909424e-01
-1.710369735956192017e-01,-6.189330294728279114e-02,6.326945871114730835e-02,1.554003953933715820e-01,1.517343968152999878e-01,1.138564348220825195e-01,-1.063510775566101074e-01,-8.655514568090438843e-02,-2.101558744907379150e-01
1.889274567365646362e-01,1.233290284872055054e-01,-3.222785890102386475e-01,-9.410908818244934082e-02,-7.607841491699218750e-01,-9.717449545860290527e-02,-4.592036008834838867e-01,1.181809902191162109e-01,3.865177333354949951e-01
-2.128322273492813110e-01,-3.107904791831970215e-01,-1.412256360054016113e-01,-2.929331967607140541e-03,-7.114780694246292114e-02,-4.167034476995468140e-02,2.032407075166702271e-01,3.666203022003173828e-01,2.091266959905624390e-01
-3.785584867000579834e-02,-3.427118360996246338e-01,-1.783235371112823486e-01,-1.284515392035245895e-02,-5.745806917548179626e-02,-1.398872956633567810e-02,1.926803886890411377e-01,2.990821301937103271e-01,1.995679885149002075e-01
7.803319394588470459e-02,1.036545187234878540e-01,-8.989576995372772217e-02,-1.985949231311678886e-03,6.787427514791488647e-02,8.144510909914970398e-03,-5.181891843676567078e-02,7.332561910152435303e-02,1.076079308986663818e-01
2.550144195556640625e-01,1.622011363506317139e-01,-8.326034247875213623e-02,1.232963129878044128e-01,6.915556639432907104e-02,-1.903647184371948242e-01,6.468674167990684509e-03,-5.260282382369041443e-02,-4.305517971515655518e-01
-2.449122220277786255e-01,-2.728067524731159210e-02,1.163781359791755676e-01,-2.741660736501216888e-02,2.168838530778884888e-01,8.513405174016952515e-02,1.131560355424880981e-01,3.447405993938446045e-02,-1.742859035730361938e-01
-4.792174994945526123e-01,-2.241165935993194580e-02,5.484313517808914185e-02,-1.365771293640136719e-01,1.921650320291519165e-01,1.956700533628463745e-01,3.026491999626159668e-01,1.310267001390457153e-01,-2.032130062580108643e-01
-5.528888665139675140e-03,3.925790544599294662e-03,1.604147404432296753e-01,6.745749711990356445e-02,6.861221045255661011e-02,-1.144867539405822754e-01,1.568504720926284790e-01,-1.066345870494842529e-01,-2.005708515644073486e-01
-4.424705728888511658e-02,-8.814503252506256104e-02,-3.856641352176666260e-01,1.823422610759735107e-01,3.628317266702651978e-02,-2.882726490497589111e-01,2.682473361492156982e-01,2.401467263698577881e-01,-5.709864199161529541e-02
-2.430514842271804810e-01,-2.079512737691402435e-02,4.420659691095352173e-02,4.101562872529029846e-02,2.178613692522048950e-01,1.885442137718200684e-01,1.259776800870895386e-01,-2.011732943356037140e-02,-2.015250027179718018e-01
-4.458579048514366150e-02,2.286310307681560516e-02,-1.446461025625467300e-02,8.513641357421875000e-02,6.730797141790390015e-02,1.024253368377685547e-01,3.142471984028816223e-02,8.104157447814941406e-02,-5.632533226162195206e-03
6.112119928002357483e-02,3.742758929729461670e-02,6.610973924398422241e-02,9.322892874479293823e-02,1.214659884572029114e-01,1.191464886069297791e-01,-1.836917400360107422e-01,-9.011832624673843384e-02,-6.807874143123626709e-02
-3.028609454631805420e-01,-2.239412069320678711e-01,1.128847151994705200e-01,1.238394305109977722e-01,2.212272733449935913e-01,2.375922352075576782e-01,-2.205071970820426941e-03,8.900136500597000122e-02,-1.433431357145309448e-01
-2.054316699504852295e-01,-9.366455674171447754e-02,2.643172629177570343e-02,7.142331451177597046e-02,-7.952814549207687378e-02,2.148128449916839600e-01,-1.669509261846542358e-01,-1.801434159278869629e-02,7.904633134603500366e-02
-2.218886464834213257e-02,-2.480880022048950195e-01,9.024393558502197266e-02,1.510091722011566162e-01,5.259726196527481079e-02,2.855302020907402039e-02,3.578556701540946960e-03,-1.633785963058471680e-01,-5.740910768508911133e-02
1.383708864450454712e-01,6.691291183233261108e-02,-8.726926147937774658e-02,-1.933244466781616211e-01,1.045108586549758911e-01,1.069634035229682922e-01,-1.388794630765914917e-01,4.577322304248809814e-02,8.542384952306747437e-02
1.059321761131286621e-01,-1.197949424386024475e-01,-5.048610642552375793e-02,2.239290773868560791e-01,-2.924541532993316650e-01,-2.041844427585601807e-01,2.774847149848937988e-01,1.055361479520797729e-01,6.742674112319946289e-02
-1.539588421583175659e-01,2.582321763038635254e-01,2.341027855873107910e-01,-4.856307506561279297e-01,-7.237461805343627930e-01,-4.095549285411834717e-01,1.000028625130653381e-01,2.112704887986183167e-02,-1.756111234426498413e-01
1.140675693750381470e-01,6.338468194007873535e-02,-3.125455975532531738e-01,5.752940475940704346e-02,1.333827078342437744e-01,-1.797918602824211121e-02,-1.952257603406906128e-01,-2.125260606408119202e-02,1.765076965093612671e-01
-1.094388887286186218e-01,-4.635836780071258545e-01,-9.759153425693511963e-02,2.056889533996582031e-01,-1.178713589906692505e-01,7.830913364887237549e-02,2.951264083385467529e-01,2.352813929319381714e-01,-3.587458655238151550e-02
-1.072028875350952148e-01,1.434233039617538452e-01,9.853953868150711060e-02,-2.361451275646686554e-02,2.256085127592086792e-01,-1.239501088857650757e-01,2.950536459684371948e-02,1.026114597916603088e-01,-1.710260361433029175e-01
1.579329371452331543e-01,-9.851166047155857086e-03,-2.529969215393066406e-01,1.541349142789840698e-01,3.742250800132751465e-02,-2.827392816543579102e-01,1.406194269657135010e-01,1.648536771535873413e-01,1.182556059211492538e-02
-2.080575078725814819e-01,-1.170828565955162048e-02,1.759572625160217285e-01,-3.767270445823669434e-01,9.877836704254150391e-02,2.717372477054595947e-01,-1.223894208669662476e-01,6.148883700370788574e-02,2.103769481182098389e-01
1.150921210646629333e-01,6.063431501388549805e-02,4.407861828804016113e-02,-9.147299453616142273e-03,2.226286567747592926e-02,-4.864771384745836258e-03,1.082517281174659729e-01,9.519734978675842285e-02,4.779978841543197632e-02
3.190369158983230591e-02,-3.098801942542195320e-03,-2.957621514797210693e-01,1.558027118444442749e-01,9.584894031286239624e-02,-3.012707531452178955e-01,1.564080119132995605e-01,1.379525661468505859e-01,4.587424546480178833e-02
-2.546352446079254150e-01,6.328435242176055908e-02,1.447230279445648193e-01,-1.677388995885848999e-01,-9.380916506052017212e-02,1.414020657539367676e-01,-9.411759674549102783e-02,-9.980304539203643799e-02,1.150704771280288696e-01
-2.189051359891891479e-01,-4.724650830030441284e-02,2.128185480833053589e-01,-1.096351444721221924e-01,-2.160853333771228790e-02,1.830592602491378784e-01,-1.927296072244644165e-01,1.212534382939338684e-01,9.919862449169158936e-02
-7.531547546386718750e-02,-3.458586633205413818e-01,-3.457323908805847168e-01,1.569474488496780396e-01,-4.609759151935577393e-02,-2.498947642743587494e-02,2.538060843944549561e-01,2.152192741632461548e-01,1.886216700077056885e-01
-3.501382470130920410e-02,1.679256558418273926e-02,1.986729167401790619e-02,1.732359081506729126e-01,8.217501454055309296e-03,-6.696261465549468994e-02,-6.067880988121032715e-02,5.138110835105180740e-03,-1.446761041879653931e-01
-4.083594083786010742e-01,-1.226453185081481934e-01,-1.282816082239151001e-01,-2.015175670385360718e-01,6.595119368284940720e-03,1.395077556371688843e-01,2.329869419336318970e-01,2.213160991668701172e-01,9.607026726007461548e-02
6.566438078880310059e-02,-1.011699289083480835e-01,-3.983173668384552002e-01,1.703062206506729126e-01,2.699148356914520264e-01,-2.429069764912128448e-02,-8.518178015947341919e-02,2.279200963675975800e-02,2.025138288736343384e-01
9.738219529390335083e-02,2.004505544900894165e-01,1.107255145907402039e-01,-2.735583484172821045e-01,2.216090797446668148e-04,1.167036220431327820e-01,-3.043844699859619141e-01,-2.867360711097717285e-01,-1.899486482143402100e-01
2.268142551183700562e-01,1.144303604960441589e-01,1.832825094461441040e-01,1.553334295749664307e-03,3.564451262354850769e-02,7.516901195049285889e-02,-2.506024837493896484e-01,-2.802314162254333496e-01,-1.731523126363754272e-01
1.150468140840530396e-01,1.789476275444030762e-01,-5.782578140497207642e-02,-1.443729996681213379e-01,-1.154907494783401489e-01,1.189910918474197388e-01,-1.263137757778167725e-01,-8.413192816078662872e-03,1.026159748435020447e-01
1.291026771068572998e-01,5.785520374774932861e-02,6.808725744485855103e-02,-8.663551509380340576e-02,6.608964502811431885e-02,1.719265729188919067e-01,-2.200321406126022339e-01,-1.366022378206253052e-01,1.335542201995849609e-01
1.204749494791030884e-01,-1.669945716857910156e-01,-4.579612612724304199e-01,2.854300141334533691e-01,-4.446047917008399963e-02,-2.474644929170608521e-01,2.800214588642120361e-01,2.981945872306823730e-01,4.968369379639625549e-03
-3.080912232398986816e-01,3.231140971183776855e-02,2.306580394506454468e-01,-2.841600477695465088e-01,-6.745943427085876465e-01,-3.664892613887786865e-01,2.573988735675811768e-01,1.881882250308990479e-01,-7.284096628427505493e-02
-2.828017808496952057e-02,5.648246780037879944e-02,-2.385842502117156982e-01,3.276932239532470703e-02,1.721867024898529053e-01,1.342740207910537720e-01,-1.337629556655883789e-01,-1.247769445180892944e-01,2.423261478543281555e-02
-2.643629014492034912e-01,1.523110121488571167e-01,2.182632535696029663e-01,-2.524136304855346680e-01,-1.944009028375148773e-02,1.097692698240280151e-01,-1.875991374254226685e-01,-1.486703455448150635e-01,1.210952997207641602e-01
-1.503833979368209839e-01,-4.421503841876983643e-02,3.771999850869178772e-02,-3.074863255023956299e-01,1.381367910653352737e-02,1.387219130992889404e-01,8.140085637569427490e-02,-3.531423583626747131e-02,1.724596768617630005e-01
4.891811013221740723e-01,2.248019725084304810e-01,-3.327176272869110107e-01,1.342357844114303589e-01,-1.215085685253143311e-01,-5.628756284713745117e-01,-1.391432881355285645e-01,-5.083463788032531738e-01,-3.105303347110748291e-01
-3.949690163135528564e-01,-9.878644347190856934e-02,-1.292373519390821457e-03,1.149265170097351074e-01,-1.311513334512710571e-01,-4.334145411849021912e-02,1.900330036878585815e-01,2.756019532680511475e-01,9.676792472600936890e-02
-1.394533216953277588e-01,-1.395914554595947266e-01,-1.482042074203491211e-01,-2.161272168159484863e-01,-8.196509629487991333e-02,1.428745388984680176e-01,1.559494733810424805e-01,3.045266270637512207e-01,3.783614933490753174e-02
1.083859577775001526e-01,1.707073748111724854e-01,7.553131133317947388e-02,3.315093740820884705e-02,2.342450432479381561e-02,-2.008024044334888458e-02,5.417848005890846252e-02,1.088248938322067261e-01,9.694629907608032227e-02
4.483810439705848694e-02,9.697289019823074341e-02,-4.882522672414779663e-02,-9.794350713491439819e-02,7.554353773593902588e-02,1.616064459085464478e-02,-5.443710833787918091e-02,-4.170600790530443192e-03,2.055806666612625122e-02
2.070835977792739868e-01,9.025930613279342651e-02,-3.056858479976654053e-01,-3.090843185782432556e-02,-7.437256574630737305e-01,-8.406060934066772461e-02,-4.610746800899505615e-01,6.218422576785087585e-02,3.222000002861022949e-01
-1.071679666638374329e-01,2.061461955308914185e-01,-7.039909809827804565e-02,1.137738153338432312e-01,8.904638886451721191e-02,-1.888791471719741821e-01,-4.242378100752830505e-02,-5.892875045537948608e-02,-7.636888418346643448e-03
1.615268364548683167e-02,2.167516201734542847e-01,2.788110375404357910e-01,-2.456686198711395264e-01,7.601105608046054840e-03,2.312972545623779297e-01,-3.896353244781494141e-01,-2.753938436508178711e-01,-2.130210995674133301e-01
8.061853796243667603e-02,2.499513924121856689e-01,1.023208498954772949e-01,3.265507817268371582e-01,1.904830038547515869e-01,-2.194556444883346558e-01,8.700477890670299530e-03,-2.656431794166564941e-01,-3.649855852127075195e-01
-1.046461313962936401e-01,1.130661293864250183e-01,5.743723735213279724e-02,3.034970536828041077e-02,1.252244710922241211e-01,3.542190417647361755e-02,1.992046646773815155e-02,-1.004524994641542435e-03,6.419761478900909424e-02
-4.728163778781890869e-02,3.771511092782020569e-02,-1.416927725076675415e-01,-9.056068025529384613e-03,1.121820434927940369e-01,-1.892081201076507568e-01,-5.166282504796981812e-02,1.499675065279006958e-01,9.484384208917617798e-02
1.033666580915451050e-01,1.013378947973251343e-01,1.147524416446685791e-01,-2.073198109865188599e-01,-3.880523890256881714e-02,1.560764759778976440e-01,-8.750968426465988159e-02,-3.200366199016571045e-01,-2.208350598812103271e-01
-1.174788028001785278e-01,2.766582183539867401e-02,1.375762522220611572e-01,1.905085146427154541e-01,3.230489194393157959e-01,-1.478950083255767822e-01,4.817656055092811584e-02,8.795933425426483154e-02,-3.790065050125122070e-01
-5.687478929758071899e-02,-3.048794269561767578e-01,-2.825224697589874268e-01,1.952489018440246582e-01,2.060029655694961548e-01,1.713545173406600952e-01,1.007559895515441895e-02,7.403525710105895996e-02,7.580654323101043701e-02
4.183788318186998367e-03,1.375406831502914429e-01,1.405249238014221191e-01,1.892324537038803101e-01,1.783646047115325928e-01,3.256558999419212341e-02,-1.478052735328674316e-01,-3.355398476123809814e-01,-2.356065660715103149e-01
1.039532199501991272e-02,4.593031480908393860e-02,-3.129264339804649353e-02,1.211849413812160492e-02,1.159651428461074829e-01,6.247023120522499084e-02,3.989873081445693970e-02,-4.069273546338081360e-02,-1.005674973130226135e-01
-3.170989155769348145e-01,2.632262744009494781e-02,1.796072274446487427e-01,-3.138219118118286133e-01,1.571408957242965698e-01,1.506743431091308594e-01,-3.846157193183898926e-01,-1.101301088929176331e-01,2.274310439825057983e-01
2.373826652765274048e-01,1.307804733514785767e-01,1.215875968337059021e-01,9.310849756002426147e-02,1.585002094507217407e-01,-2.375506609678268433e-01,-3.742996454238891602e-01,-4.393249452114105225e-01,-3.444261550903320312e-01
-1.461629010736942291e-02,-6.915828585624694824e-02,7.262588012963533401e-03,-5.820734798908233643e-02,1.177145540714263916e-01,-1.024766862392425537e-01,3.423344343900680542e-02,-1.286791358143091202e-02,6.619316339492797852e-02
-1.914489418268203735e-01,-2.535590529441833496e-01,6.998859345912933350e-02,-2.880058586597442627e-01,-1.821223795413970947e-01,2.284753918647766113e-01,-2.177661806344985962e-01,1.142701432108879089e-01,2.067597657442092896e-01
2.403769344091415405e-01,2.213434576988220215e-01,2.187926918268203735e-01,5.876071378588676453e-02,9.978364221751689911e-03,-7.746358215808868408e-02,-2.946963310241699219e-01,-2.952094376087188721e-01,-1.508920937776565552e-01
5.994211882352828979e-02,1.092695966362953186e-01,2.828145585954189301e-02,1.115998402237892151e-01,-1.415933370590209961e-01,4.849540069699287415e-02,-6.296901404857635498e-02,1.088354736566543579e-01,-6.262341141700744629e-02
7.104039657860994339e-03,-1.307944804430007935e-01,2.807066440582275391e-01,1.318365037441253662e-01,-6.149404048919677734e-01,-1.365381628274917603e-01,3.639674186706542969e-01,-2.656037360429763794e-02,2.210993133485317230e-02
-7.525783032178878784e-02,-3.134882822632789612e-02,-1.466337312012910843e-02,-4.460281133651733398e-02,5.084872245788574219e-02,2.711781300604343414e-02,-3.292011842131614685e-02,9.321477264165878296e-02,-1.321346014738082886e-01
-2.668370492756366730e-02,7.061039656400680542e-02,1.051758378744125366e-01,1.155596822500228882e-01,-3.635128960013389587e-02,1.136948391795158386e-01,-1.501239184290170670e-02,-1.780591011047363281e-01,-9.720850735902786255e-02
9.430354088544845581e-02,1.108524054288864136e-01,-1.438399404287338257e-01,-3.831682261079549789e-03,-1.725127846002578735e-01,6.608859449625015259e-02,8.894839882850646973e-02,-5.641393363475799561e-02,1.292784959077835083e-01
1.970505565404891968e-01,7.630544155836105347e-02,-3.452362716197967529e-01,5.291011184453964233e-02,1.696570515632629395e-01,-1.377782821655273438e-01,-2.195246331393718719e-02,1.341000646352767944e-01,2.403613552451133728e-02
4.720132052898406982e-02,7.826454937458038330e-02,4.587684199213981628e-02,1.301156729459762573e-01,9.869781136512756348e-02,-1.914288997650146484e-01,9.946194291114807129e-02,1.111480668187141418e-01,-2.594916820526123047e-01
-7.691287901252508163e-04,-2.589842081069946289e-01,-3.141989186406135559e-02,1.205361187458038330e-01,1.817079931497573853e-01,5.433993041515350342e-02,-7.085929811000823975e-02,-9.858349710702896118e-02,-7.880336791276931763e-02
-1.215135976672172546e-01,7.815536111593246460e-03,2.651836723089218140e-02,-5.805148184299468994e-02,1.152034774422645569e-01,2.729733288288116455e-02,2.595836110413074493e-02,-1.674350500106811523e-01,2.813163213431835175e-02
-5.913262814283370972e-02,1.316030323505401611e-02,3.878698125481605530e-02,1.516124513000249863e-02,-3.617847710847854614e-02,-2.798968739807605743e-02,6.501492857933044434e-02,-1.054368540644645691e-01,4.190611839294433594e-02
-4.640678688883781433e-02,1.189096458256244659e-02,9.702432155609130859e-02,-9.495752863585948944e-03,2.316479198634624481e-02,-2.834479808807373047e-01,4.641056433320045471e-02,8.618690073490142822e-02,8.133126050233840942e-02
9.676406532526016235e-02,-2.931233495473861694e-02,1.569606363773345947e-02,-4.689379408955574036e-02,4.778588563203811646e-02,-2.759975567460060120e-02,1.401339918375015259e-01,9.459548629820346832e-03,7.403510808944702148e-02
2.183455079793930054e-01,1.113304123282432556e-01,1.622915863990783691e-01,1.729363389313220978e-02,9.753174334764480591e-02,4.074472188949584961e-02,-2.147948443889617920e-01,-2.957065105438232422e-01,-2.033082395792007446e-01
-2.386911958456039429e-01,-6.607764959335327148e-02,2.425395995378494263e-01,-2.410201281309127808e-01,-9.624429792165756226e-02,1.935861259698867798e-01,-2.133838087320327759e-01,-1.005060449242591858e-01,1.695866137742996216e-01
-2.402918040752410889e-02,1.897284984588623047e-01,1.655774414539337158e-01,1.025759726762771606e-01,4.381390288472175598e-02,2.250396609306335449e-01,-1.964292228221893311e-01,-3.478338420391082764e-01,-1.898581236600875854e-01
6.529406458139419556e-02,-1.466684639453887939e-01,-2.739994227886199951e-01,-1.180481985211372375e-01,-9.965370595455169678e-02,6.708031892776489258e-02,1.479247957468032837e-01,9.852758795022964478e-02,1.612064093351364136e-01
-2.772676944732666016e-01,1.099372804164886475e-01,2.254075184464454651e-02,1.062633842229843140e-01,2.134537696838378906e-01,-5.091078951954841614e-02,1.177492141723632812e-01,-1.044821292161941528e-01,-1.899244487285614014e-01
-1.891012191772460938e-01,-1.362106353044509888e-01,2.544746696949005127e-01,-2.266868948936462402e-01,-1.519395411014556885e-01,2.139794230461120605e-01,-2.162820845842361450e-01,-8.037187904119491577e-02,9.707555174827575684e-02
1.859539896249771118e-01,-1.284465193748474121e-01,-6.997903436422348022e-02,3.741845116019248962e-02,-1.654439978301525116e-02,7.799594849348068237e-02,1.349274367094039917e-01,6.685762852430343628e-02,-3.557553747668862343e-03
1.519389450550079346e-01,7.185732480138540268e-03,1.469992995262145996e-01,6.888838112354278564e-02,-2.247728407382965088e-02,-8.841111324727535248e-03,-1.286795139312744141e-01,-6.373310834169387817e-02,8.862844109535217285e-02
1.716852784156799316e-01,2.227694541215896606e-01,1.846288144588470459e-01,-1.897618919610977173e-01,-2.558134496212005615e-01,-4.144027456641197205e-02,-2.229445800185203552e-02,-1.159017980098724365e-01,-6.541784852743148804e-02
8.989872783422470093e-02,1.477842479944229126e-01,1.341584622859954834e-01,-1.805744320154190063e-01,-1.737747341394424438e-03,1.555953919887542725e-01,-2.914466261863708496e-01,-9.123299270868301392e-02,2.164079099893569946e-01
-5.650351941585540771e-02,2.044124305248260498e-01,7.724972069263458252e-02,-1.074524894356727600e-01,-1.051629632711410522e-01,1.343081444501876831e-01,-1.696795821189880371e-01,-6.299769133329391479e-02,1.641544103622436523e-01
9.253584593534469604e-02,7.622373849153518677e-02,1.125262975692749023e-01,-5.217779800295829773e-02,2.451729401946067810e-02,1.208815872669219971e-01,-1.833464801311492920e-01,-1.982884705066680908e-01,-1.230881456285715103e-02
1.778328269720077515e-01,7.038714736700057983e-02,-3.413692414760589600e-01,1.203472465276718140e-01,1.996124237775802612e-01,-2.875881791114807129e-01,-3.219177201390266418e-02,9.494260698556900024e-02,-1.818715967237949371e-02
2.153208851814270020e-01,-7.272904366254806519e-02,-1.670046597719192505e-01,1.599209457635879517e-01,-9.343253821134567261e-02,-6.102347746491432190e-02,-8.420957624912261963e-02,1.078509539365768433e-02,-3.059743344783782959e-01
1.365686506032943726e-01,5.100601539015769958e-02,-2.778964936733245850e-01,3.246760964393615723e-01,-9.906815737485885620e-02,-3.592510819435119629e-01,2.450443208217620850e-01,-1.894391328096389771e-02,7.887075655162334442e-03
1.703525632619857788e-01,1.382327228784561157e-01,-8.708733320236206055e-02,-1.501849740743637085e-01,8.370162546634674072e-02,1.990907080471515656e-02,-1.663647741079330444e-01,1.458590030670166016e-01,9.797089733183383942e-03
-1.942908577620983124e-02,1.559707820415496826e-01,6.631349772214889526e-02,-4.002912715077400208e-02,6.981416791677474976e-02,-5.119810253381729126e-02,4.659178480505943298e-02,9.001187235116958618e-02,6.234639789909124374e-03
-3.263738006353378296e-02,-6.209636926651000977e-01,-3.319326639175415039e-01,-4.974580407142639160e-01,-5.275052413344383240e-02,2.568887472152709961e-01,-6.891620904207229614e-02,3.333731591701507568e-01,3.383690118789672852e-01
-1.689644604921340942e-01,1.942247897386550903e-01,1.843380331993103027e-01,8.326158858835697174e-03,1.970777213573455811e-01,-1.303054541349411011e-01,1.976795494556427002e-01,-3.108282946050167084e-02,-3.434283435344696045e-01
-2.137473672628402710e-01,-2.002287209033966064e-01,9.297053515911102295e-02,-1.102972030639648438e-01,2.008547782897949219e-01,1.341172456741333008e-01,1.188110932707786560e-01,1.600237637758255005e-01,-2.849406301975250244e-01
2.824159264564514160e-01,1.578808426856994629e-01,2.460726946592330933e-01,-3.448292985558509827e-02,3.396295011043548584e-02,-6.661146134138107300e-02,-2.761931717395782471e-01,-3.389486968517303467e-01,-7.467269897460937500e-02
3.016338944435119629e-01,3.270306587219238281e-01,2.391464821994304657e-02,2.330068796873092651e-01,5.276662856340408325e-02,-4.193871021270751953e-01,-4.225692152976989746e-01,-5.998448729515075684e-01,-1.682687252759933472e-01
1.116458103060722351e-01,1.142537072300910950e-01,7.996974140405654907e-02,8.717074058949947357e-03,5.002156272530555725e-02,-5.811617523431777954e-02,4.090219363570213318e-02,7.500077039003372192e-02,1.020615026354789734e-01
2.008308842778205872e-02,-4.226126149296760559e-02,1.406013220548629761e-01,-2.710113525390625000e-01,-8.782146498560905457e-03,1.870732754468917847e-01,-2.263339161872863770e-01,1.695500127971172333e-02,2.049974054098129272e-01
5.434186756610870361e-02,-1.252965778112411499e-01,-2.447059005498886108e-01,-1.478522364050149918e-02,1.415030062198638916e-01,2.065131068229675293e-01,-2.063969336450099945e-02,-1.496663093566894531e-01,2.521564625203609467e-02
-2.002359367907047272e-02,1.093817427754402161e-01,-1.956648230552673340e-01,-1.525032520294189453e-01,1.598602905869483948e-02,6.168539077043533325e-02,-1.276018470525741577e-01,1.445592790842056274e-01,-9.805382788181304932e-02
-6.473182886838912964e-02,-3.203985095024108887e-02,1.835319772362709045e-02,2.023092508316040039e-01,7.871210575103759766e-02,2.175384610891342163e-01,-8.817056566476821899e-02,-1.403511613607406616e-01,-9.029646962881088257e-02
-5.185721069574356079e-02,-2.759779691696166992e-01,-2.038227021694183350e-01,7.766868174076080322e-02,-4.413011297583580017e-02,1.284166276454925537e-01,9.914362430572509766e-02,1.639534533023834229e-01,8.090090751647949219e-02
3.385201469063758850e-02,-2.860823273658752441e-01,-1.194867417216300964e-01,-1.022816449403762817e-01,-9.414916485548019409e-02,6.859085708856582642e-02,1.685380637645721436e-01,2.442605644464492798e-01,3.539541363716125488e-02
2.007373869419097900e-01,1.238564625382423401e-01,2.431408017873764038e-01,-4.436406493186950684e-02,6.473487615585327148e-02,1.469457447528839111e-01,-2.958585023880004883e-01,-3.144156932830810547e-01,-1.950548887252807617e-01
1.283600926399230957e-01,7.016955316066741943e-02,-1.069445982575416565e-01,-2.015461921691894531e-01,-3.469313383102416992e-01,-1.318176239728927612e-01,1.540215760469436646e-01,1.964427083730697632e-01,2.175092697143554688e-01
2.014725655317306519e-01,-7.037378102540969849e-02,-1.571560204029083252e-01,1.062744930386543274e-01,-6.350053474307060242e-03,-1.508414149284362793e-01,1.983254104852676392e-01,-1.725111454725265503e-01,-3.409243226051330566e-01
-2.858514189720153809e-01,-7.225402444601058960e-02,1.768581867218017578e-01,1.306283921003341675e-01,2.185947746038436890e-01,1.592046767473220825e-01,1.172128468751907349e-01,-1.254612952470779419e-01,-4.050468206405639648e-01
2.399889975786209106e-01,2.330928146839141846e-01,2.483505159616470337e-01,-2.715166285634040833e-02,-8.574805222451686859e-03,8.278778940439224243e-02,-3.480478227138519287e-01,-3.102491497993469238e-01,-1.869160085916519165e-01
3.181771188974380493e-02,1.155271679162979126e-01,-2.162500023841857910e-01,-9.583060443401336670e-02,1.380450129508972168e-01,7.142475992441177368e-02,-1.519125103950500488e-01,-1.099925711750984192e-01,3.246876969933509827e-02
-2.332200109958648682e-02,9.349208325147628784e-02,1.165438890457153320e-01,1.226588711142539978e-01,-2.036764286458492279e-02,-1.213743910193443298e-01,6.122111901640892029e-02,-4.110035020858049393e-03,-4.950127378106117249e-02
8.690073341131210327e-02,-3.855337947607040405e-02,9.411397576332092285e-02,4.709904547780752182e-03,9.995259344577789307e-02,-1.362899597734212875e-02,3.643553331494331360e-02,2.125407569110393524e-02,-3.339737281203269958e-02
-1.931612342596054077e-01,-3.576603159308433533e-02,-6.594300270080566406e-02,1.207793969660997391e-02,1.790248453617095947e-01,1.160132884979248047e-01,1.011549457907676697e-01,-2.307598441839218140e-01,-5.029442161321640015e-02
-3.333909064531326294e-02,-2.354031056165695190e-01,-3.185825347900390625e-01,2.718097865581512451e-01,1.213839054107666016e-01,-2.157327234745025635e-01,1.201150566339492798e-01,1.892147809267044067e-01,2.184475399553775787e-02
-2.493706941604614258e-01,5.039851181209087372e-03,1.475787162780761719e-01,-2.846452295780181885e-01,9.177780151367187500e-02,1.643364727497100830e-01,-1.184545084834098816e-01,1.826145313680171967e-02,1.906129717826843262e-01
-3.319869339466094971e-01,-2.424452602863311768e-01,-1.812469214200973511e-01,-7.831459492444992065e-02,-1.178879886865615845e-01,-3.450281620025634766e-01,3.217824399471282959e-01,1.653331518173217773e-01,-2.929146215319633484e-02
2.232173681259155273e-01,2.287968397140502930e-01,9.200153499841690063e-02,-2.824228703975677490e-01,-4.961672052741050720e-02,-4.137266278266906738e-01,-4.037700295448303223e-01,-5.010395050048828125e-01,-8.402884751558303833e-02
1.030497178435325623e-01,-6.608879566192626953e-02,1.011052653193473816e-01,6.806921213865280151e-02,-7.530508935451507568e-02,-1.496615260839462280e-01,6.249951571226119995e-02,2.053310908377170563e-02,8.269947767257690430e-02
-2.617051899433135986e-01,-2.109818719327449799e-02,2.335232123732566833e-02,-1.337171941995620728e-01,3.967218566685914993e-03,2.021173983812332153e-01,1.928068324923515320e-02,1.536414921283721924e-01,1.438875496387481689e-02
-7.442837115377187729e-03,2.846121490001678467e-01,1.996998786926269531e-01,-2.641751468181610107e-01,2.343478985130786896e-02,2.926886379718780518e-01,-4.999054372310638428e-01,-2.350545376539230347e-01,2.822456955909729004e-01
5.525531619787216187e-02,-8.134048432111740112e-03,-1.841240227222442627e-01,4.050981998443603516e-02,3.933076187968254089e-02,7.560303062200546265e-02,2.747241221368312836e-02,5.416548252105712891e-02,-4.363074153661727905e-02
-2.877431809902191162e-01,-2.500587701797485352e-01,-9.610477834939956665e-02,-4.880055785179138184e-02,8.068738877773284912e-02,3.019294701516628265e-02,2.655938267707824707e-01,1.674933582544326782e-01,7.319747656583786011e-02
1.455906927585601807e-01,7.264792919158935547e-02,-4.907876849174499512e-01,2.448213752359151840e-03,-7.073945999145507812e-01,-5.901635438203811646e-02,-4.927727282047271729e-01,-3.852687031030654907e-02,2.388214915990829468e-01
9.021170437335968018e-02,1.807102113962173462e-01,1.783686727285385132e-01,8.635347336530685425e-02,5.253164470195770264e-02,6.820482667535543442e-03,-2.150840610265731812e-01,-3.132670521736145020e-01,-1.139975860714912415e-01
8.440990746021270752e-02,3.737539425492286682e-02,-9.616079926490783691e-02,-4.759377986192703247e-02,1.727804690599441528e-01,-2.359643429517745972e-01,-1.848411113023757935e-01,2.144099622964859009e-01,9.294506907463073730e-02
-5.150096490979194641e-02,-1.165283322334289551e-01,1.123657897114753723e-01,-8.237586915493011475e-02,-2.666856721043586731e-02,-1.390154473483562469e-02,5.621550977230072021e-02,1.245419383049011230e-01,-5.937974900007247925e-02
1.728620678186416626e-01,1.585279405117034912e-01,3.301350399851799011e-02,5.028088390827178955e-02,-1.014421656727790833e-01,-2.233771383762359619e-01,1.187261044979095459e-01,-1.799032241106033325e-01,4.912104830145835876e-02
4.155606776475906372e-02,-2.881144881248474121e-01,-2.369281649589538574e-02,-5.256877839565277100e-02,-6.512749195098876953e-02,-5.437067523598670959e-02,1.080143824219703674e-01,1.573060452938079834e-01,9.491159766912460327e-02
6.947821378707885742e-02,-3.923773765563964844e-02,-3.440360724925994873e-01,1.692795306444168091e-01,1.441334486007690430e-01,-3.508071601390838623e-01,9.426756948232650757e-02,2.748147249221801758e-01,-6.925058364868164062e-02
-1.481308415532112122e-02,3.145400583744049072e-01,2.393607422709465027e-02,2.968873083591461182e-01,1.043514534831047058e-02,-3.446532189846038818e-01,8.268839865922927856e-02,-3.640466034412384033e-01,-2.086751628667116165e-03
7.213806360960006714e-02,-1.697777211666107178e-01,-5.460686609148979187e-02,7.329274713993072510e-02,-7.314196974039077759e-02,1.058684363961219788e-01,1.050796732306480408e-01,2.401528321206569672e-02,5.092694237828254700e-02
8.702976256608963013e-02,-1.730638742446899414e-02,9.394687414169311523e-02,6.432646512985229492e-02,-2.578309550881385803e-02,-5.166575312614440918e-02,-7.815060764551162720e-02,1.059678494930267334e-01,4.786038026213645935e-02
1.040287092328071594e-01,1.575925946235656738e-01,-2.396585941314697266e-01,-3.737646341323852539e-02,1.423102170228958130e-01,1.443952023983001709e-01,-1.786030083894729614e-01,8.001480251550674438e-02,2.085997164249420166e-02
6.275463104248046875e-02,4.887190181761980057e-03,4.035341367125511169e-02,3.717019781470298767e-02,-2.234501764178276062e-02,9.269505739212036133e-02,-1.946100592613220215e-02,4.525762051343917847e-02,-6.588632613420486450e-02
2.449196428060531616e-01,1.642231494188308716e-01,2.033782899379730225e-01,-5.717337131500244141e-02,1.490798890590667725e-01,-3.831521049141883850e-02,-1.933923512697219849e-01,-3.532599508762359619e-01,-2.574605643749237061e-01
-3.090023063123226166e-02,5.369371175765991211e-02,4.174974281340837479e-03,-4.491837695240974426e-03,6.559111922979354858e-02,-1.740366965532302856e-01,-2.990755951032042503e-03,9.474410861730575562e-02,-2.127708867192268372e-02
-2.376774400472640991e-01,-8.811542391777038574e-02,9.608650207519531250e-02,-1.830313503742218018e-01,1.122541427612304688e-01,7.966036349534988403e-02,-7.177840918302536011e-03,2.520422935485839844e-01,-2.843748591840267181e-02
1.684429794549942017e-01,3.232478350400924683e-02,-1.267539411783218384e-01,1.973784416913986206e-01,7.688508927822113037e-02,-3.430360555648803711e-01,1.357666701078414917e-01,-7.525551319122314453e-02,-2.757706642150878906e-01
2.231925278902053833e-01,-1.036991830915212631e-02,-2.705009877681732178e-01,-2.227008044719696045e-01,-5.231807231903076172e-01,5.054678767919540405e-02,-4.420027881860733032e-02,-3.496127128601074219e-01,5.996733903884887695e-02
6.214886903762817383e-02,2.731197327375411987e-02,-4.401468038558959961e-01,2.065345793962478638e-01,-5.627093836665153503e-02,-3.722235858440399170e-01,2.382455021142959595e-01,2.868986129760742188e-01,-3.968251124024391174e-02
7.380279153585433960e-02,-6.221679598093032837e-02,1.966910064220428467e-02,7.258468121290206909e-02,4.801166430115699768e-02,1.098485291004180908e-01,7.501850277185440063e-02,5.804331973195075989e-02,1.325569897890090942e-01
3.568789735436439514e-02,6.118249893188476562e-02,1.536431014537811279e-01,-7.644957304000854492e-02,-6.005376204848289490e-02,-3.793661482632160187e-03,-2.957233190536499023e-01,1.819475181400775909e-02,1.831810027360916138e-01
1.321272104978561401e-01,2.121375501155853271e-01,-1.585361361503601074e-01,1.183474510908126831e-01,1.666686683893203735e-01,-2.370048463344573975e-01,1.077775433659553528e-01,-1.221977397799491882e-01,-3.584609031677246094e-01
